{"learner":{"attributes":{"scikit_learn":"{\"_estimator_type\": \"classifier\"}"},"feature_names":["cryptominer_binary","mining_pools","hardcoded_secrets","external_calls","ssh_backdoor","runs_as_root","known_cves","outdated_base","typosquatting_score","image_age_days","suspicious_ports","avg_file_entropy","high_entropy_ratio","stratum_indicators","raw_ip_connections","suspicious_dns_queries","stripped_binaries_ratio","packed_binary_score","layer_deletion_score","temp_file_activity","process_injection_risk","privilege_escalation_risk","crypto_mining_behavior","anti_analysis_score"],"feature_types":["float","float","float","float","float","float","float","float","float","float","float","float","float","float","float","float","float","float","float","float","float","float","float","float"],"gradient_booster":{"model":{"cats":{"enc":[],"feature_segments":[],"sorted_idx":[]},"gbtree_model_param":{"num_parallel_tree":"1","num_trees":"150"},"iteration_indptr":[0,1,2,3,4,5,6,7,8,9,10,11,12,13,14,15,16,17,18,19,20,21,22,23,24,25,26,27,28,29,30,31,32,33,34,35,36,37,38,39,40,41,42,43,44,45,46,47,48,49,50,51,52,53,54,55,56,57,58,59,60,61,62,63,64,65,66,67,68,69,70,71,72,73,74,75,76,77,78,79,80,81,82,83,84,85,86,87,88,89,90,91,92,93,94,95,96,97,98,99,100,101,102,103,104,105,106,107,108,109,110,111,112,113,114,115,116,117,118,119,120,121,122,123,124,125,126,127,128,129,130,131,132,133,134,135,136,137,138,139,140,141,142,143,144,145,146,147,148,149,150],"tree_info":[0,0,0,0,0,0,0,0,0,0,0,0,0,0,0,0,0,0,0,0,0,0,0,0,0,0,0,0,0,0,0,0,0,0,0,0,0,0,0,0,0,0,0,0,0,0,0,0,0,0,0,0,0,0,0,0,0,0,0,0,0,0,0,0,0,0,0,0,0,0,0,0,0,0,0,0,0,0,0,0,0,0,0,0,0,0,0,0,0,0,0,0,0,0,0,0,0,0,0,0,0,0,0,0,0,0,0,0,0,0,0,0,0,0,0,0,0,0,0,0,0,0,0,0,0,0,0,0,0,0,0,0,0,0,0,0,0,0,0,0,0,0,0,0,0,0,0,0,0,0],"trees":[{"base_weights":[1.9047586E-2,-1.7482837E0,1.4644195E0,-1.8025593E-1,-4.64455E-2,-1.1111112E-1,1.6889331E0,5.607475E-3,1.7805907E-1],"categories":[],"categories_nodes":[],"categories_segments":[],"categories_sizes":[],"default_left":[0,0,0,0,0,0,0,0,0],"id":0,"left_children":[1,3,5,-1,-1,-1,7,-1,-1],"loss_changes":[9.540469E1,3.3395767E-1,1.3752796E1,0E0,0E0,0E0,2.7869415E0,0E0,0E0],"parents":[2147483647,0,0,1,1,2,2,6,6],"right_children":[2,4,6,-1,-1,-1,8,-1,-1],"split_conditions":[3.13E-1,3.2E1,8E0,-1.8025593E-1,-4.64455E-2,-1.1111112E-1,4.52E-1,5.607475E-3,1.7805907E-1],"split_indices":[15,6,6,0,0,0,8,0,0],"split_type":[0,0,0,0,0,0,0,0,0],"sum_hessian":[3.5346153E1,1.5807693E1,1.9538462E1,1.4778846E1,1.0288461E0,1.25E0,1.8288462E1,1.0576923E0,1.7230768E1],"tree_param":{"num_deleted":"0","num_feature":"24","num_nodes":"9","size_leaf_vector":"1"}},{"base_weights":[-1.3562919E-1,-1.6262863E0,1.7425467E-1,-1.7604895E-1,-1.5452452E-2],"categories":[],"categories_nodes":[],"categories_segments":[],"categories_sizes":[],"default_left":[0,0,0,0,0],"id":1,"left_children":[1,3,-1,-1,-1],"loss_changes":[1.0416528E2,3.8156662E0,0E0,0E0,0E0],"parents":[2147483647,0,0,1,1],"right_children":[2,4,-1,-1,-1],"split_conditions":[1.011E3,5.64E-1,1.7425467E-1,-1.7604895E-1,-1.5452452E-2],"split_indices":[9,15,0,0,0],"split_type":[0,0,0,0,0],"sum_hessian":[3.519345E1,1.9695658E1,1.5497794E1,1.7869997E1,1.8256614E0],"tree_param":{"num_deleted":"0","num_feature":"24","num_nodes":"5","size_leaf_vector":"1"}},{"base_weights":[8.145925E-2,-1.5025074E0,1.1804913E0,-4.4277083E-2,-1.5701127E-1,-3.567533E-1,1.4729781E0,-1.1276487E-1,6.9959365E-2,2.032306E-2,1.5652178E-1],"categories":[],"categories_nodes":[],"categories_segments":[],"categories_sizes":[],"default_left":[0,0,0,0,0,0,0,0,0,0,0],"id":2,"left_children":[1,3,5,-1,-1,7,9,-1,-1,-1,-1],"loss_changes":[5.988137E1,3.1591415E-1,9.63765E0,0E0,0E0,4.082566E0,1.6989098E0,0E0,0E0,0E0,0E0],"parents":[2147483647,0,0,1,1,2,2,5,5,6,6],"right_children":[2,4,6,-1,-1,8,10,-1,-1,-1,-1],"split_conditions":[2.6E-1,2E-3,1.63E-1,-4.4277083E-2,-1.5701127E-1,1.3E-1,1E0,-1.1276487E-1,6.9959365E-2,2.032306E-2,1.5652178E-1],"split_indices":[15,22,22,0,0,20,5,0,0,0,0],"split_type":[0,0,0,0,0,0,0,0,0,0,0],"sum_hessian":[3.2379288E1,1.3113089E1,1.92662E1,1.2391014E0,1.1873988E1,3.0446227E0,1.6221577E1,1.7211049E0,1.3235177E0,1.3155341E0,1.4906042E1],"tree_param":{"num_deleted":"0","num_feature":"24","num_nodes":"11","size_leaf_vector":"1"}},{"base_weights":[4.4915438E-2,-1.348572E0,1.5276305E-1,-1.468217E0,-4.210949E-1,-1.522313E-1,-4.5436453E-2,2.3134926E-2,-9.144648E-2],"categories":[],"categories_nodes":[],"categories_segments":[],"categories_sizes":[],"default_left":[0,0,0,0,0,0,0,0,0],"id":3,"left_children":[1,3,-1,5,7,-1,-1,-1,-1],"loss_changes":[7.3855484E1,1.4284706E0,0E0,1.8226242E-1,1.3412917E0,0E0,0E0,0E0,0E0],"parents":[2147483647,0,0,1,1,3,3,4,4],"right_children":[2,4,-1,6,8,-1,-1,-1,-1],"split_conditions":[1.011E3,2.9E1,1.5276305E-1,6.86E2,1.3E-2,-1.522313E-1,-4.5436453E-2,2.3134926E-2,-9.144648E-2],"split_indices":[9,6,0,9,19,0,0,0,0],"split_type":[0,0,0,0,0,0,0,0,0],"sum_hessian":[3.374846E1,1.7444353E1,1.6304106E1,1.4934743E1,2.5096104E0,1.37021265E1,1.2326162E0,1.3092761E0,1.2003343E0],"tree_param":{"num_deleted":"0","num_feature":"24","num_nodes":"9","size_leaf_vector":"1"}},{"base_weights":[-7.851632E-2,-1.356285E0,9.3017966E-1,-3.7686568E-2,-1.4152049E-1,-7.366545E-2,1.1650841E0,-1.5121423E-2,1.2779119E0,1.4264829E-2,1.3696544E-1],"categories":[],"categories_nodes":[],"categories_segments":[],"categories_sizes":[],"default_left":[0,0,0,0,0,0,0,0,0,0,0],"id":4,"left_children":[1,3,5,-1,-1,-1,7,-1,9,-1,-1],"loss_changes":[4.3428547E1,3.2302284E-1,8.24917E0,0E0,0E0,0E0,2.7078876E0,0E0,1.4399071E0,0E0,0E0],"parents":[2147483647,0,0,1,1,2,2,6,6,8,8],"right_children":[2,4,6,-1,-1,-1,8,-1,10,-1,-1],"split_conditions":[2.6E-1,3E-3,1E0,-3.7686568E-2,-1.4152049E-1,-7.366545E-2,1.69E-1,-1.5121423E-2,1E0,1.4264829E-2,1.3696544E-1],"split_indices":[15,13,7,0,0,0,22,0,5,0,0],"split_type":[0,0,0,0,0,0,0,0,0,0,0],"sum_hessian":[3.1715965E1,1.3839785E1,1.787618E1,1.2050251E0,1.263476E1,1.9442439E0,1.5931937E1,1.230948E0,1.4700989E1,1.2902099E0,1.3410779E1],"tree_param":{"num_deleted":"0","num_feature":"24","num_nodes":"11","size_leaf_vector":"1"}},{"base_weights":[-1.1587566E-2,-1.1768756E0,1.3817619E-1,-1.326002E0,-1.5272407E-1,-1.3757074E-1,-3.8890995E-2,5.7142127E-2,-8.524673E-2],"categories":[],"categories_nodes":[],"categories_segments":[],"categories_sizes":[],"default_left":[0,0,0,0,0,0,0,0,0],"id":5,"left_children":[1,3,-1,5,7,-1,-1,-1,-1],"loss_changes":[5.4597637E1,2.5933971E0,0E0,2.0322037E-1,2.238816E0,0E0,0E0,0E0,0E0],"parents":[2147483647,0,0,1,1,3,3,4,4],"right_children":[2,4,-1,6,8,-1,-1,-1,-1],"split_conditions":[1.011E3,2.9E1,1.3817619E-1,7.31E2,2.36E-1,-1.3757074E-1,-3.8890995E-2,5.7142127E-2,-8.524673E-2],"split_indices":[9,6,0,9,18,0,0,0,0],"split_type":[0,0,0,0,0,0,0,0,0],"sum_hessian":[3.1624865E1,1.7306461E1,1.4318403E1,1.4849499E1,2.4569638E0,1.3657039E1,1.1924601E0,1.2975492E0,1.1594144E0],"tree_param":{"num_deleted":"0","num_feature":"24","num_nodes":"9","size_leaf_vector":"1"}},{"base_weights":[5.6247734E-2,-1.1509768E0,1.3232547E-1,-1.2586281E0,-2.9976058E-1,-1.3103543E-1,-3.696746E-2,1.211065E-3,-4.5024604E-2],"categories":[],"categories_nodes":[],"categories_segments":[],"categories_sizes":[],"default_left":[0,0,0,0,0,0,0,0,0],"id":6,"left_children":[1,3,-1,5,7,-1,-1,-1,-1],"loss_changes":[4.9235653E1,1.1354599E0,0E0,1.750927E-1,1.5404046E-1,0E0,0E0,0E0,0E0],"parents":[2147483647,0,0,1,1,3,3,4,4],"right_children":[2,4,-1,6,8,-1,-1,-1,-1],"split_conditions":[1.011E3,2.9E1,1.3232547E-1,7.31E2,9.2E-2,-1.3103543E-1,-3.696746E-2,1.211065E-3,-4.5024604E-2],"split_indices":[9,6,0,9,18,0,0,0,0],"split_type":[0,0,0,0,0,0,0,0,0],"sum_hessian":[3.0193645E1,1.5508489E1,1.4685158E1,1.3342474E1,2.1660147E0,1.2160822E1,1.1816524E0,1.0042647E0,1.1617498E0],"tree_param":{"num_deleted":"0","num_feature":"24","num_nodes":"9","size_leaf_vector":"1"}},{"base_weights":[1.56048015E-2,-1.0529809E0,1.2704478E-1,-1.2044883E0,-1.06482215E-1,-1.2637965E-1,-2.5733298E-2,-8.246073E-2,6.0488578E-2],"categories":[],"categories_nodes":[],"categories_segments":[],"categories_sizes":[],"default_left":[0,0,0,0,0,0,0,0,0],"id":7,"left_children":[1,3,-1,5,7,-1,-1,-1,-1],"loss_changes":[4.214858E1,2.3073254E0,0E0,4.9176788E-1,2.2564003E0,0E0,0E0,0E0,0E0],"parents":[2147483647,0,0,1,1,3,3,4,4],"right_children":[2,4,-1,6,8,-1,-1,-1,-1],"split_conditions":[1.011E3,2.9E1,1.2704478E-1,6.76E2,1E-3,-1.2637965E-1,-2.5733298E-2,-8.246073E-2,6.0488578E-2],"split_indices":[9,6,0,9,20,0,0,0,0],"split_type":[0,0,0,0,0,0,0,0,0],"sum_hessian":[2.943523E1,1.5984333E1,1.3450898E1,1.3543786E1,2.4405465E0,1.2431078E1,1.112708E0,1.1352886E0,1.3052578E0],"tree_param":{"num_deleted":"0","num_feature":"24","num_nodes":"9","size_leaf_vector":"1"}},{"base_weights":[-2.4505284E-2,-1.059627E0,1.150441E0,-1.2312547E-1,-1.9713461E-1,3.069312E-2,1.20314814E-1,2.3603408E-2,-5.2928854E-2],"categories":[],"categories_nodes":[],"categories_segments":[],"categories_sizes":[],"default_left":[0,0,0,0,0,0,0,0,0],"id":8,"left_children":[1,3,5,-1,7,-1,-1,-1,-1],"loss_changes":[3.3744812E1,1.9389515E0,2.0891571E-1,0E0,6.4816916E-1,0E0,0E0,0E0,0E0],"parents":[2147483647,0,0,1,1,2,2,4,4],"right_children":[2,4,6,-1,8,-1,-1,-1,-1],"split_conditions":[8.89E2,2.9E1,8.72E-1,-1.2312547E-1,9.2E-2,3.069312E-2,1.20314814E-1,2.3603408E-2,-5.2928854E-2],"split_indices":[9,6,14,0,18,0,0,0,0],"split_type":[0,0,0,0,0,0,0,0,0],"sum_hessian":[2.5743496E1,1.3738285E1,1.2005211E1,1.1101616E1,2.636669E0,1.1073186E0,1.0897892E1,1.2699217E0,1.3667473E0],"tree_param":{"num_deleted":"0","num_feature":"24","num_nodes":"9","size_leaf_vector":"1"}},{"base_weights":[-4.0919922E-2,-1.059051E0,1.1235237E0,-1.161659E-1,-1.3336137E-2,2.7897218E-2,1.176964E-1],"categories":[],"categories_nodes":[],"categories_segments":[],"categories_sizes":[],"default_left":[0,0,0,0,0,0,0],"id":9,"left_children":[1,3,5,-1,-1,-1,-1],"loss_changes":[3.3348835E1,1.2685719E0,2.6465416E-1,0E0,0E0,0E0,0E0],"parents":[2147483647,0,0,1,1,2,2],"right_children":[2,4,6,-1,-1,-1,-1],"split_conditions":[8.89E2,5.16E-1,1.172E3,-1.161659E-1,-1.3336137E-2,2.7897218E-2,1.176964E-1],"split_indices":[9,15,9,0,0,0,0],"split_type":[0,0,0,0,0,0,0],"sum_hessian":[2.6125635E1,1.39867935E1,1.2138842E1,1.2361655E1,1.6251386E0,1.0925652E0,1.1046277E1],"tree_param":{"num_deleted":"0","num_feature":"24","num_nodes":"7","size_leaf_vector":"1"}},{"base_weights":[3.4855742E-3,-1.0959432E0,1.0921214E0,-1.16617076E-1,-2.1968152E-2,2.6438368E-2,1.1461393E-1],"categories":[],"categories_nodes":[],"categories_segments":[],"categories_sizes":[],"default_left":[0,0,0,0,0,0,0],"id":10,"left_children":[1,3,5,-1,-1,-1,-1],"loss_changes":[3.0833603E1,5.3265953E-1,2.756853E-1,0E0,0E0,0E0,0E0],"parents":[2147483647,0,0,1,1,2,2],"right_children":[2,4,6,-1,-1,-1,-1],"split_conditions":[7.35E2,3.3E1,1.172E3,-1.16617076E-1,-2.1968152E-2,2.6438368E-2,1.1461393E-1],"split_indices":[9,6,9,0,0,0,0],"split_type":[0,0,0,0,0,0,0],"sum_hessian":[2.376168E1,1.1818897E1,1.1942783E1,1.063566E1,1.1832362E0,1.0927353E0,1.0850048E1],"tree_param":{"num_deleted":"0","num_feature":"24","num_nodes":"7","size_leaf_vector":"1"}},{"base_weights":[-1.9740385E-3,-8.848952E-1,6.76822E-1,-1.0689571E-1,-1.8223284E-1,-6.039178E-2,9.394118E-1,-6.766985E-2,3.360097E-2,1.6243866E-2,1.0000539E0,3.514528E-2,1.1007197E-1],"categories":[],"categories_nodes":[],"categories_segments":[],"categories_sizes":[],"default_left":[0,0,0,0,0,0,0,0,0,0,0,0,0],"id":11,"left_children":[1,3,5,-1,7,-1,9,-1,-1,-1,11,-1,-1],"loss_changes":[1.3963683E1,1.114819E0,4.997813E0,0E0,1.0749089E0,0E0,3.710928E-1,0E0,0E0,0E0,2.8630543E-1,0E0,0E0],"parents":[2147483647,0,0,1,1,2,2,4,4,6,6,10,10],"right_children":[2,4,6,-1,8,-1,10,-1,-1,-1,12,-1,-1],"split_conditions":[2.3E1,1E0,1.1E-2,-1.0689571E-1,1.35E-1,-6.039178E-2,2.9E1,-6.766985E-2,3.360097E-2,1.6243866E-2,1E-3,3.514528E-2,1.1007197E-1],"split_indices":[6,7,20,0,23,0,6,0,0,0,18,0,0],"split_type":[0,0,0,0,0,0,0,0,0,0,0,0,0],"sum_hessian":[2.1299757E1,9.125911E0,1.2173846E1,6.8185105E0,2.3073997E0,1.8501558E0,1.032369E1,1.0243195E0,1.2830803E0,1.0137473E0,9.309943E0,1.8542284E0,7.455715E0],"tree_param":{"num_deleted":"0","num_feature":"24","num_nodes":"13","size_leaf_vector":"1"}},{"base_weights":[-3.2848574E-2,-9.594688E-1,1.0929959E-1,-1.1201191E-1,-2.2247984E-1,3.9564755E-2,-7.003103E-2],"categories":[],"categories_nodes":[],"categories_segments":[],"categories_sizes":[],"default_left":[0,0,0,0,0,0,0],"id":12,"left_children":[1,3,-1,-1,5,-1,-1],"loss_changes":[2.4397636E1,1.2674017E0,0E0,0E0,1.3227556E0,0E0,0E0],"parents":[2147483647,0,0,1,1,4,4],"right_children":[2,4,-1,-1,6,-1,-1],"split_conditions":[1.011E3,2.9E1,1.0929959E-1,-1.1201191E-1,4.54E2,3.9564755E-2,-7.003103E-2],"split_indices":[9,6,0,0,9,0,0],"split_type":[0,0,0,0,0,0,0],"sum_hessian":[2.1381388E1,1.1809456E1,9.571931E0,9.269101E0,2.5403552E0,1.1825657E0,1.3577896E0],"tree_param":{"num_deleted":"0","num_feature":"24","num_nodes":"7","size_leaf_vector":"1"}},{"base_weights":[2.541723E-2,-8.674414E-1,1.0071123E0,-1.027873E0,3.1629305E-2,2.5505943E-2,1.060703E-1,-2.8496036E-2,-1.10860445E-1],"categories":[],"categories_nodes":[],"categories_segments":[],"categories_sizes":[],"default_left":[0,0,0,0,0,0,0,0,0],"id":13,"left_children":[1,3,5,7,-1,-1,-1,-1,-1],"loss_changes":[1.9063059E1,2.4910135E0,1.4647484E-1,3.0059242E-1,0E0,0E0,0E0,0E0,0E0],"parents":[2147483647,0,0,1,1,2,2,3,3],"right_children":[2,4,6,8,-1,-1,-1,-1,-1],"split_conditions":[8.89E2,5.64E-1,8.72E-1,3.4E-1,3.1629305E-2,2.5505943E-2,1.060703E-1,-2.8496036E-2,-1.10860445E-1],"split_indices":[9,15,14,8,0,0,0,0,0],"split_type":[0,0,0,0,0,0,0,0,0],"sum_hessian":[1.9752014E1,1.0404987E1,9.347026E0,9.279064E0,1.1259235E0,1.0048666E0,8.342159E0,1.353501E0,7.925563E0],"tree_param":{"num_deleted":"0","num_feature":"24","num_nodes":"9","size_leaf_vector":"1"}},{"base_weights":[-1.155147E-1,-9.464667E-1,1.0112993E-1,-1.06211804E-1,-3.1350186E-1,1.0633565E-2,-5.7897944E-2],"categories":[],"categories_nodes":[],"categories_segments":[],"categories_sizes":[],"default_left":[0,0,0,0,0,0,0],"id":14,"left_children":[1,3,-1,-1,5,-1,-1],"loss_changes":[1.9071619E1,5.199518E-1,0E0,0E0,4.2032325E-1,0E0,0E0],"parents":[2147483647,0,0,1,1,4,4],"right_children":[2,4,-1,-1,6,-1,-1],"split_conditions":[8.45E2,2.9E1,1.0112993E-1,-1.06211804E-1,4.54E2,1.0633565E-2,-5.7897944E-2],"split_indices":[9,6,0,0,9,0,0],"split_type":[0,0,0,0,0,0,0],"sum_hessian":[1.834627E1,1.0651518E1,7.6947513E0,8.432737E0,2.2187808E0,1.0917293E0,1.1270516E0],"tree_param":{"num_deleted":"0","num_feature":"24","num_nodes":"7","size_leaf_vector":"1"}},{"base_weights":[-7.811878E-2,-7.814673E-1,5.1076394E-1,-9.760235E-2,-1.632609E-2,-5.952852E-2,8.0216235E-1,1.592693E-2,9.0553105E-1,2.1807713E-2,9.800189E-2],"categories":[],"categories_nodes":[],"categories_segments":[],"categories_sizes":[],"default_left":[0,0,0,0,0,0,0,0,0,0,0],"id":15,"left_children":[1,3,5,-1,-1,-1,7,-1,9,-1,-1],"loss_changes":[7.9264975E0,8.843093E-1,3.8605456E0,0E0,0E0,0E0,4.361763E-1,0E0,1.606307E-1,0E0,0E0],"parents":[2147483647,0,0,1,1,2,2,6,6,8,8],"right_children":[2,4,6,-1,-1,-1,8,-1,10,-1,-1],"split_conditions":[2.4E1,1E0,1.1E-2,-9.760235E-2,-1.632609E-2,-5.952852E-2,1E-3,1.592693E-2,1.81E-1,2.1807713E-2,9.800189E-2],"split_indices":[6,7,20,0,0,0,18,0,22,0,0],"split_type":[0,0,0,0,0,0,0,0,0,0,0],"sum_hessian":[1.7173677E1,7.6771836E0,9.496493E0,5.3991995E0,2.2779841E0,1.7627687E0,7.733725E0,1.4231775E0,6.3105474E0,1.0008951E0,5.3096523E0],"tree_param":{"num_deleted":"0","num_feature":"24","num_nodes":"11","size_leaf_vector":"1"}},{"base_weights":[-1.2227669E-2,-8.462105E-1,1.00481726E-1,-9.739356E-2,9.8940125E-3],"categories":[],"categories_nodes":[],"categories_segments":[],"categories_sizes":[],"default_left":[0,0,0,0,0],"id":16,"left_children":[1,3,-1,-1,-1],"loss_changes":[1.5315992E1,1.2931128E0,0E0,0E0,0E0],"parents":[2147483647,0,0,1,1],"right_children":[2,4,-1,-1,-1],"split_conditions":[1.011E3,2.95E-1,1.00481726E-1,-9.739356E-2,9.8940125E-3],"split_indices":[9,20,0,0,0],"split_type":[0,0,0,0,0],"sum_hessian":[1.6054634E1,8.91349E0,7.1411433E0,7.825516E0,1.0879741E0],"tree_param":{"num_deleted":"0","num_feature":"24","num_nodes":"5","size_leaf_vector":"1"}},{"base_weights":[-7.356199E-2,-8.5646594E-1,8.985801E-2,-9.299392E-1,-1.2032235E-2,-2.4642896E-2,-1.0204438E-1],"categories":[],"categories_nodes":[],"categories_segments":[],"categories_sizes":[],"default_left":[0,0,0,0,0,0,0],"id":17,"left_children":[1,3,-1,5,-1,-1,-1],"loss_changes":[1.297554E1,3.962698E-1,0E0,2.6779652E-1,0E0,0E0,0E0],"parents":[2147483647,0,0,1,1,3,3],"right_children":[2,4,-1,6,-1,-1,-1],"split_conditions":[8.45E2,5.16E-1,8.985801E-2,3.4E-1,-1.2032235E-2,-2.4642896E-2,-1.0204438E-1],"split_indices":[9,15,0,8,0,0,0],"split_type":[0,0,0,0,0,0,0],"sum_hessian":[1.5037361E1,8.395294E0,6.6420674E0,7.3940487E0,1.0012455E0,1.2998831E0,6.0941653E0],"tree_param":{"num_deleted":"0","num_feature":"24","num_nodes":"7","size_leaf_vector":"1"}},{"base_weights":[-5.7685513E-2,-7.247655E-1,9.5757395E-2,-8.423999E-1,6.3080005E-3,-1.9350657E-2,-9.106965E-1,-2.6981328E-2,-1.0027977E-1],"categories":[],"categories_nodes":[],"categories_segments":[],"categories_sizes":[],"default_left":[0,0,0,0,0,0,0,0,0],"id":18,"left_children":[1,3,-1,5,-1,-1,7,-1,-1],"loss_changes":[1.1784177E1,1.0217347E0,0E0,2.2985792E-1,0E0,0E0,2.0286512E-1,0E0,0E0],"parents":[2147483647,0,0,1,1,3,3,6,6],"right_children":[2,4,-1,6,-1,-1,8,-1,-1],"split_conditions":[1.011E3,5.64E-1,9.5757395E-2,1E-3,6.3080005E-3,-1.9350657E-2,3.4E-1,-2.6981328E-2,-1.0027977E-1],"split_indices":[9,15,0,22,0,0,8,0,0],"split_type":[0,0,0,0,0,0,0,0,0],"sum_hessian":[1.5375058E1,9.451224E0,5.923834E0,8.16313E0,1.288095E0,1.142399E0,7.0207305E0,1.3759259E0,5.6448045E0],"tree_param":{"num_deleted":"0","num_feature":"24","num_nodes":"9","size_leaf_vector":"1"}},{"base_weights":[7.656987E-2,-7.024091E-1,9.299625E-2,-9.430648E-2,-5.1337715E-2,3.7938323E-2,-4.9308185E-2],"categories":[],"categories_nodes":[],"categories_segments":[],"categories_sizes":[],"default_left":[0,0,0,0,0,0,0],"id":19,"left_children":[1,3,-1,-1,5,-1,-1],"loss_changes":[1.0308957E1,1.2306252E0,0E0,0E0,8.0745953E-1,0E0,0E0],"parents":[2147483647,0,0,1,1,4,4],"right_children":[2,4,-1,-1,6,-1,-1],"split_conditions":[8.89E2,2.9E1,9.299625E-2,-9.430648E-2,4.54E2,3.7938323E-2,-4.9308185E-2],"split_indices":[9,6,0,0,9,0,0],"split_type":[0,0,0,0,0,0,0],"sum_hessian":[1.3524832E1,7.1631823E0,6.3616495E0,4.902565E0,2.2606173E0,1.2160661E0,1.044551E0],"tree_param":{"num_deleted":"0","num_feature":"24","num_nodes":"7","size_leaf_vector":"1"}},{"base_weights":[5.453156E-3,-7.045968E-1,8.950025E-2,-9.423523E-2,-5.434901E-3,1.932506E-2,-1.9258937E-2],"categories":[],"categories_nodes":[],"categories_segments":[],"categories_sizes":[],"default_left":[0,0,0,0,0,0,0],"id":20,"left_children":[1,3,-1,-1,5,-1,-1],"loss_changes":[9.499498E0,1.3858938E0,0E0,0E0,1.5358078E-1,0E0,0E0],"parents":[2147483647,0,0,1,1,4,4],"right_children":[2,4,-1,-1,6,-1,-1],"split_conditions":[8.89E2,2.9E1,8.950025E-2,-9.423523E-2,2.41E2,1.932506E-2,-1.9258937E-2],"split_indices":[9,6,0,0,9,0,0],"split_type":[0,0,0,0,0,0,0],"sum_hessian":[1.3041386E1,7.3680377E0,5.6733475E0,5.2387342E0,2.1293035E0,1.0170344E0,1.1122692E0],"tree_param":{"num_deleted":"0","num_feature":"24","num_nodes":"7","size_leaf_vector":"1"}},{"base_weights":[4.48651E-3,-6.894012E-1,9.146422E-2,-9.4640516E-2,4.293171E-2,4.799022E-2,-4.2680595E-2],"categories":[],"categories_nodes":[],"categories_segments":[],"categories_sizes":[],"default_left":[0,0,0,0,0,0,0],"id":21,"left_children":[1,3,-1,-1,5,-1,-1],"loss_changes":[9.065771E0,1.5743444E0,0E0,0E0,8.3568865E-1,0E0,0E0],"parents":[2147483647,0,0,1,1,4,4],"right_children":[2,4,-1,-1,6,-1,-1],"split_conditions":[1.011E3,2.9E1,9.146422E-2,-9.4640516E-2,4.54E2,4.799022E-2,-4.2680595E-2],"split_indices":[9,6,0,0,9,0,0],"split_type":[0,0,0,0,0,0,0],"sum_hessian":[1.2356459E1,7.148844E0,5.207615E0,5.0753813E0,2.0734627E0,1.062987E0,1.0104758E0],"tree_param":{"num_deleted":"0","num_feature":"24","num_nodes":"7","size_leaf_vector":"1"}},{"base_weights":[-1.039018E-1,-7.1152693E-1,8.756443E-2,-8.672077E-1,9.459789E-3,-1.7992824E-2,-9.614558E-2],"categories":[],"categories_nodes":[],"categories_segments":[],"categories_sizes":[],"default_left":[0,0,0,0,0,0,0],"id":22,"left_children":[1,3,-1,5,-1,-1,-1],"loss_changes":[8.097346E0,1.1239047E0,0E0,2.8408766E-1,0E0,0E0,0E0],"parents":[2147483647,0,0,1,1,3,3],"right_children":[2,4,-1,6,-1,-1,-1],"split_conditions":[1.011E3,5.64E-1,8.756443E-2,2.4E-2,9.459789E-3,-1.7992824E-2,-9.614558E-2],"split_indices":[9,15,0,13,0,0,0],"split_type":[0,0,0,0,0,0,0],"sum_hessian":[1.1557696E1,7.3018684E0,4.255828E0,6.0564575E0,1.2454108E0,1.0811977E0,4.97526E0],"tree_param":{"num_deleted":"0","num_feature":"24","num_nodes":"7","size_leaf_vector":"1"}},{"base_weights":[1.6718525E-2,-7.296873E-1,8.642684E-2,-8.864578E-2,3.0548428E-3],"categories":[],"categories_nodes":[],"categories_segments":[],"categories_sizes":[],"default_left":[0,0,0,0,0],"id":23,"left_children":[1,3,-1,-1,-1],"loss_changes":[7.475946E0,7.774339E-1,0E0,0E0,0E0],"parents":[2147483647,0,0,1,1],"right_children":[2,4,-1,-1,-1],"split_conditions":[8.89E2,3.3E1,8.642684E-2,-8.864578E-2,3.0548428E-3],"split_indices":[9,6,0,0,0],"split_type":[0,0,0,0,0],"sum_hessian":[9.820622E0,5.2958374E0,4.524785E0,4.25282E0,1.0430174E0],"tree_param":{"num_deleted":"0","num_feature":"24","num_nodes":"5","size_leaf_vector":"1"}},{"base_weights":[-8.2206726E-2,-7.017325E-1,8.265677E-2,-8.2789026E-2,-4.177316E-3],"categories":[],"categories_nodes":[],"categories_segments":[],"categories_sizes":[],"default_left":[0,0,0,0,0],"id":24,"left_children":[1,3,-1,-1,-1],"loss_changes":[6.8927574E0,5.6555796E-1,0E0,0E0,0E0],"parents":[2147483647,0,0,1,1],"right_children":[2,4,-1,-1,-1],"split_conditions":[8.89E2,2.83E-1,8.265677E-2,-8.2789026E-2,-4.177316E-3],"split_indices":[9,20,0,0,0],"split_type":[0,0,0,0,0],"sum_hessian":[1.0212477E1,6.2081256E0,4.004351E0,4.9982114E0,1.2099142E0],"tree_param":{"num_deleted":"0","num_feature":"24","num_nodes":"5","size_leaf_vector":"1"}},{"base_weights":[1.0280997E-2,-5.6766385E-1,8.092469E-2,-8.5696526E-2,7.850263E-3],"categories":[],"categories_nodes":[],"categories_segments":[],"categories_sizes":[],"default_left":[0,0,0,0,0],"id":25,"left_children":[1,3,-1,-1,-1],"loss_changes":[5.4401984E0,1.3471897E0,0E0,0E0,0E0],"parents":[2147483647,0,0,1,1],"right_children":[2,4,-1,-1,-1],"split_conditions":[8.89E2,2.9E1,8.092469E-2,-8.5696526E-2,7.850263E-3],"split_indices":[9,6,0,0,0],"split_type":[0,0,0,0,0],"sum_hessian":[9.786637E0,5.8467784E0,3.9398594E0,3.8132718E0,2.0335066E0],"tree_param":{"num_deleted":"0","num_feature":"24","num_nodes":"5","size_leaf_vector":"1"}},{"base_weights":[-7.628285E-2,-6.256561E-1,8.183129E-2,-8.1309044E-1,2.0413449E-2,-2.1091415E-2,-9.05437E-2],"categories":[],"categories_nodes":[],"categories_segments":[],"categories_sizes":[],"default_left":[0,0,0,0,0,0,0],"id":26,"left_children":[1,3,-1,5,-1,-1,-1],"loss_changes":[5.6447816E0,1.2604651E0,0E0,1.3940787E-1,0E0,0E0,0E0],"parents":[2147483647,0,0,1,1,3,3],"right_children":[2,4,-1,6,-1,-1,-1],"split_conditions":[1.011E3,5.64E-1,8.183129E-2,4E-3,2.0413449E-2,-2.1091415E-2,-9.05437E-2],"split_indices":[9,15,0,22,0,0,0],"split_type":[0,0,0,0,0,0,0],"sum_hessian":[9.443832E0,6.037077E0,3.406756E0,4.9410996E0,1.0959772E0,1.0936345E0,3.8474653E0],"tree_param":{"num_deleted":"0","num_feature":"24","num_nodes":"7","size_leaf_vector":"1"}},{"base_weights":[3.6588013E-2,-8.500279E-2,5.1299644E-1,-4.3425705E-2,8.813746E-2,-6.162403E-2,4.9842242E-2],"categories":[],"categories_nodes":[],"categories_segments":[],"categories_sizes":[],"default_left":[0,0,0,0,0,0,0],"id":27,"left_children":[1,-1,3,5,-1,-1,-1],"loss_changes":[4.5792837E0,0E0,1.4739398E0,1.4689015E0,0E0,0E0,0E0],"parents":[2147483647,0,0,2,2,3,3],"right_children":[2,-1,4,6,-1,-1,-1],"split_conditions":[2E-1,-8.500279E-2,8.45E2,2.9E1,8.813746E-2,-6.162403E-2,4.9842242E-2],"split_indices":[15,0,9,6,0,0,0],"split_type":[0,0,0,0,0,0,0],"sum_hessian":[8.808969E0,2.804827E0,6.0041413E0,2.7430212E0,3.26112E0,1.266669E0,1.4763523E0],"tree_param":{"num_deleted":"0","num_feature":"24","num_nodes":"7","size_leaf_vector":"1"}},{"base_weights":[1.7032677E-2,-6.5089846E-1,6.2777436E-1,-8.215725E-2,1.3659862E-3,-1.4079195E-2,8.362721E-2],"categories":[],"categories_nodes":[],"categories_segments":[],"categories_sizes":[],"default_left":[0,0,0,0,0,0,0],"id":28,"left_children":[1,3,5,-1,-1,-1,-1],"loss_changes":[4.3188086E0,5.8619475E-1,1.0016606E0,0E0,0E0,0E0,0E0],"parents":[2147483647,0,0,1,1,2,2],"right_children":[2,4,6,-1,-1,-1,-1],"split_conditions":[6.5E-2,7.35E2,2.9E1,-8.215725E-2,1.3659862E-3,-1.4079195E-2,8.362721E-2],"split_indices":[20,9,6,0,0,0,0],"split_type":[0,0,0,0,0,0,0],"sum_hessian":[8.585366E0,4.069285E0,4.516081E0,3.0497663E0,1.0195187E0,1.0329908E0,3.4830902E0],"tree_param":{"num_deleted":"0","num_feature":"24","num_nodes":"7","size_leaf_vector":"1"}},{"base_weights":[-7.461386E-3,-7.90282E-2,3.7677535E-1,5.772317E-1,-3.083295E-2,1.6151595E-1,7.912536E-2,4.0713754E-2,-1.8111678E-2],"categories":[],"categories_nodes":[],"categories_segments":[],"categories_sizes":[],"default_left":[0,0,0,0,0,0,0,0,0],"id":29,"left_children":[1,-1,3,5,-1,7,-1,-1,-1],"loss_changes":[3.0445895E0,0E0,1.11221E0,3.7142026E-1,0E0,3.3996636E-1,0E0,0E0,0E0],"parents":[2147483647,0,0,2,2,3,3,5,5],"right_children":[2,-1,4,6,-1,8,-1,-1,-1],"split_conditions":[2E-1,-7.90282E-2,2.1E-2,1E-3,-3.083295E-2,2.06E-1,7.912536E-2,4.0713754E-2,-1.8111678E-2],"split_indices":[15,0,19,18,0,22,0,0,0],"split_type":[0,0,0,0,0,0,0,0,0],"sum_hessian":[8.132103E0,2.3294551E0,5.8026476E0,4.6109686E0,1.1916789E0,2.1634183E0,2.4475505E0,1.1504431E0,1.0129752E0],"tree_param":{"num_deleted":"0","num_feature":"24","num_nodes":"9","size_leaf_vector":"1"}},{"base_weights":[-7.114267E-2,-7.830794E-2,3.1315455E-1,4.882885E-1,-2.6225043E-2,1.4724122E-1,7.004906E-2,5.0295155E-2,-2.5136774E-2],"categories":[],"categories_nodes":[],"categories_segments":[],"categories_sizes":[],"default_left":[0,0,0,0,0,0,0,0,0],"id":30,"left_children":[1,-1,3,5,-1,7,-1,-1,-1],"loss_changes":[2.5004165E0,0E0,7.394967E-1,2.5879478E-1,0E0,5.779326E-1,0E0,0E0,0E0],"parents":[2147483647,0,0,2,2,3,3,5,5],"right_children":[2,-1,4,6,-1,8,-1,-1,-1],"split_conditions":[1.35E-1,-7.830794E-2,2.1E-2,1E-3,-2.6225043E-2,4.63E-1,7.004906E-2,5.0295155E-2,-2.5136774E-2],"split_indices":[15,0,19,18,0,15,0,0,0],"split_type":[0,0,0,0,0,0,0,0,0],"sum_hessian":[7.2428E0,2.1752708E0,5.067529E0,4.0011225E0,1.0664068E0,2.1843493E0,1.8167732E0,1.0159606E0,1.1683887E0],"tree_param":{"num_deleted":"0","num_feature":"24","num_nodes":"9","size_leaf_vector":"1"}},{"base_weights":[-9.915005E-2,-5.788718E-1,7.5174354E-2,-8.488939E-2,-7.425787E-2,1.8399369E-2,-2.7779391E-2],"categories":[],"categories_nodes":[],"categories_segments":[],"categories_sizes":[],"default_left":[0,0,0,0,0,0,0],"id":31,"left_children":[1,3,-1,-1,5,-1,-1],"loss_changes":[3.998883E0,7.7465415E-1,0E0,0E0,2.2135952E-1,0E0,0E0],"parents":[2147483647,0,0,1,1,4,4],"right_children":[2,4,-1,-1,6,-1,-1],"split_conditions":[1.011E3,6.5E-2,7.5174354E-2,-8.488939E-2,1.64E2,1.8399369E-2,-2.7779391E-2],"split_indices":[9,20,0,0,9,0,0],"split_type":[0,0,0,0,0,0,0],"sum_hessian":[7.730495E0,5.147882E0,2.582613E0,2.9089956E0,2.238886E0,1.0291233E0,1.2097628E0],"tree_param":{"num_deleted":"0","num_feature":"24","num_nodes":"7","size_leaf_vector":"1"}},{"base_weights":[-1.15725935E-1,-6.611115E-1,7.4380755E-2,-8.313506E-2,2.4318786E-3],"categories":[],"categories_nodes":[],"categories_segments":[],"categories_sizes":[],"default_left":[0,0,0,0,0],"id":32,"left_children":[1,3,-1,-1,-1],"loss_changes":[4.1526523E0,6.3951063E-1,0E0,0E0,0E0],"parents":[2147483647,0,0,1,1],"right_children":[2,4,-1,-1,-1],"split_conditions":[1.011E3,2.95E-1,7.4380755E-2,-8.313506E-2,2.4318786E-3],"split_indices":[9,20,0,0,0],"split_type":[0,0,0,0,0],"sum_hessian":[6.809494E0,4.3073015E0,2.5021925E0,3.279812E0,1.0274895E0],"tree_param":{"num_deleted":"0","num_feature":"24","num_nodes":"5","size_leaf_vector":"1"}},{"base_weights":[-1.17663555E-1,-5.9728485E-1,7.224219E-2,-8.142503E-2,-1.0966043E-2],"categories":[],"categories_nodes":[],"categories_segments":[],"categories_sizes":[],"default_left":[0,0,0,0,0],"id":33,"left_children":[1,3,-1,-1,-1],"loss_changes":[3.58095E0,4.9504817E-1,0E0,0E0,0E0],"parents":[2147483647,0,0,1,1],"right_children":[2,4,-1,-1,-1],"split_conditions":[1.011E3,1.53E-1,7.224219E-2,-8.142503E-2,-1.0966043E-2],"split_indices":[9,20,0,0,0],"split_type":[0,0,0,0,0],"sum_hessian":[6.816528E0,4.523176E0,2.2933514E0,2.6667788E0,1.8563976E0],"tree_param":{"num_deleted":"0","num_feature":"24","num_nodes":"5","size_leaf_vector":"1"}},{"base_weights":[5.729054E-3,-4.4115236E-1,6.2063497E-2,-7.588596E-2,2.298924E-3],"categories":[],"categories_nodes":[],"categories_segments":[],"categories_sizes":[],"default_left":[0,0,0,0,0],"id":34,"left_children":[1,3,-1,-1,-1],"loss_changes":[2.527538E0,8.040494E-1,0E0,0E0,0E0],"parents":[2147483647,0,0,1,1],"right_children":[2,4,-1,-1,-1],"split_conditions":[8.89E2,2.78E-1,6.2063497E-2,-7.588596E-2,2.298924E-3],"split_indices":[9,23,0,0,0],"split_type":[0,0,0,0,0],"sum_hessian":[7.201693E0,4.334312E0,2.8673813E0,2.1960976E0,2.138214E0],"tree_param":{"num_deleted":"0","num_feature":"24","num_nodes":"5","size_leaf_vector":"1"}},{"base_weights":[2.5495064E-2,-6.1057486E-2,7.06562E-2],"categories":[],"categories_nodes":[],"categories_segments":[],"categories_sizes":[],"default_left":[0,0,0],"id":35,"left_children":[1,-1,-1],"loss_changes":[3.3418121E0,0E0,0E0],"parents":[2147483647,0,0],"right_children":[2,-1,-1],"split_conditions":[6.92E2,-6.1057486E-2,7.06562E-2],"split_indices":[9,0,0],"split_type":[0,0,0],"sum_hessian":[5.7182865E0,3.0103385E0,2.707948E0],"tree_param":{"num_deleted":"0","num_feature":"24","num_nodes":"3","size_leaf_vector":"1"}},{"base_weights":[7.3671915E-2,-4.1987783E-1,6.913689E-2,-7.145484E-2,1.4518733E-2],"categories":[],"categories_nodes":[],"categories_segments":[],"categories_sizes":[],"default_left":[0,0,0,0,0],"id":36,"left_children":[1,3,-1,-1,-1],"loss_changes":[2.3320591E0,8.27207E-1,0E0,0E0,0E0],"parents":[2147483647,0,0,1,1],"right_children":[2,4,-1,-1,-1],"split_conditions":[8.45E2,2.06E-1,6.913689E-2,-7.145484E-2,1.4518733E-2],"split_indices":[9,22,0,0,0],"split_type":[0,0,0,0,0],"sum_hessian":[5.697306E0,3.344917E0,2.3523893E0,2.0245907E0,1.3203263E0],"tree_param":{"num_deleted":"0","num_feature":"24","num_nodes":"5","size_leaf_vector":"1"}},{"base_weights":[8.94936E-3,-4.3498045E-1,6.510124E-2,-7.271444E-2,6.7743445E-3],"categories":[],"categories_nodes":[],"categories_segments":[],"categories_sizes":[],"default_left":[0,0,0,0,0],"id":37,"left_children":[1,3,-1,-1,-1],"loss_changes":[2.1724403E0,7.12889E-1,0E0,0E0,0E0],"parents":[2147483647,0,0,1,1],"right_children":[2,4,-1,-1,-1],"split_conditions":[8.89E2,4E-1,6.510124E-2,-7.271444E-2,6.7743445E-3],"split_indices":[9,23,0,0,0],"split_type":[0,0,0,0,0],"sum_hessian":[5.628272E0,3.518244E0,2.1100278E0,1.9427708E0,1.5754733E0],"tree_param":{"num_deleted":"0","num_feature":"24","num_nodes":"5","size_leaf_vector":"1"}},{"base_weights":[7.023144E-2,-7.1814984E-2,4.978452E-1,8.8953675E-4,7.252273E-2],"categories":[],"categories_nodes":[],"categories_segments":[],"categories_sizes":[],"default_left":[0,0,0,0,0],"id":38,"left_children":[1,-1,3,-1,-1],"loss_changes":[2.505642E0,0E0,5.185071E-1,0E0,0E0],"parents":[2147483647,0,0,2,2],"right_children":[2,-1,4,-1,-1],"split_conditions":[2E-1,-7.1814984E-2,3.3E1,8.8953675E-4,7.252273E-2],"split_indices":[15,0,6,0,0],"split_type":[0,0,0,0,0],"sum_hessian":[5.371907E0,1.6501427E0,3.7217643E0,1.5112268E0,2.2105377E0],"tree_param":{"num_deleted":"0","num_feature":"24","num_nodes":"5","size_leaf_vector":"1"}},{"base_weights":[3.8842715E-2,-5.8634784E-2,5.9817207E-1,1.5130368E-2,7.350306E-2],"categories":[],"categories_nodes":[],"categories_segments":[],"categories_sizes":[],"default_left":[0,0,0,0,0],"id":39,"left_children":[1,-1,3,-1,-1],"loss_changes":[2.4369862E0,0E0,1.1163938E-1,0E0,0E0],"parents":[2147483647,0,0,2,2],"right_children":[2,-1,4,-1,-1],"split_conditions":[2.9E1,-5.8634784E-2,5.02E-1,1.5130368E-2,7.350306E-2],"split_indices":[6,0,15,0,0],"split_type":[0,0,0,0,0],"sum_hessian":[4.966041E0,2.3221512E0,2.6438901E0,1.1135365E0,1.5303537E0],"tree_param":{"num_deleted":"0","num_feature":"24","num_nodes":"5","size_leaf_vector":"1"}},{"base_weights":[-4.5907114E-2,-5.726712E-2,5.0701314E-1,9.837176E-3,6.449791E-2],"categories":[],"categories_nodes":[],"categories_segments":[],"categories_sizes":[],"default_left":[0,0,0,0,0],"id":40,"left_children":[1,-1,3,-1,-1],"loss_changes":[2.0538714E0,0E0,1.3300222E-1,0E0,0E0],"parents":[2147483647,0,0,2,2],"right_children":[2,-1,4,-1,-1],"split_conditions":[6.92E2,-5.726712E-2,2.9E1,9.837176E-3,6.449791E-2],"split_indices":[9,0,6,0,0],"split_type":[0,0,0,0,0],"sum_hessian":[5.054826E0,2.5703483E0,2.4844775E0,1.0594642E0,1.4250132E0],"tree_param":{"num_deleted":"0","num_feature":"24","num_nodes":"5","size_leaf_vector":"1"}},{"base_weights":[4.744994E-2,-3.2570302E-1,6.067993E-2,-6.597672E-2,1.2587197E-2],"categories":[],"categories_nodes":[],"categories_segments":[],"categories_sizes":[],"default_left":[0,0,0,0,0],"id":41,"left_children":[1,3,-1,-1,-1],"loss_changes":[1.5066327E0,7.487048E-1,0E0,0E0,0E0],"parents":[2147483647,0,0,1,1],"right_children":[2,4,-1,-1,-1],"split_conditions":[8.89E2,2.9E1,6.067993E-2,-6.597672E-2,1.2587197E-2],"split_indices":[9,6,0,0,0],"split_type":[0,0,0,0,0],"sum_hessian":[5.271456E0,3.4125726E0,1.8588834E0,1.6965046E0,1.716068E0],"tree_param":{"num_deleted":"0","num_feature":"24","num_nodes":"5","size_leaf_vector":"1"}},{"base_weights":[1.311506E-1,-2.675247E-1,7.2324075E-2,-6.673991E-2,2.0708138E-2],"categories":[],"categories_nodes":[],"categories_segments":[],"categories_sizes":[],"default_left":[0,0,0,0,0],"id":42,"left_children":[1,3,-1,-1,-1],"loss_changes":[1.5134269E0,9.1093725E-1,0E0,0E0,0E0],"parents":[2147483647,0,0,1,1],"right_children":[2,4,-1,-1,-1],"split_conditions":[8.89E2,2.67E-1,7.2324075E-2,-6.673991E-2,2.0708138E-2],"split_indices":[9,23,0,0,0],"split_type":[0,0,0,0,0],"sum_hessian":[4.59175E0,3.071661E0,1.5200893E0,1.4466144E0,1.6250466E0],"tree_param":{"num_deleted":"0","num_feature":"24","num_nodes":"5","size_leaf_vector":"1"}},{"base_weights":[-4.632309E-2,-6.955666E-2,3.2960555E-1,-1.176174E-2,7.1072154E-2],"categories":[],"categories_nodes":[],"categories_segments":[],"categories_sizes":[],"default_left":[0,0,0,0,0],"id":43,"left_children":[1,-1,3,-1,-1],"loss_changes":[1.6416298E0,0E0,8.2387257E-1,0E0,0E0],"parents":[2147483647,0,0,2,2],"right_children":[2,-1,4,-1,-1],"split_conditions":[2E-1,-6.955666E-2,7.33E2,-1.176174E-2,7.1072154E-2],"split_indices":[15,0,9,0,0],"split_type":[0,0,0,0,0],"sum_hessian":[4.786748E0,1.4435016E0,3.3432462E0,1.856321E0,1.4869252E0],"tree_param":{"num_deleted":"0","num_feature":"24","num_nodes":"5","size_leaf_vector":"1"}},{"base_weights":[-2.1556745E-1,-6.563983E-2,8.0218874E-2,4.080447E-2,-1.9777188E-2],"categories":[],"categories_nodes":[],"categories_segments":[],"categories_sizes":[],"default_left":[0,0,0,0,0],"id":44,"left_children":[1,-1,3,-1,-1],"loss_changes":[7.500541E-1,0E0,4.536067E-1,0E0,0E0],"parents":[2147483647,0,0,2,2],"right_children":[2,-1,4,-1,-1],"split_conditions":[2E-1,-6.563983E-2,2.27E-1,4.080447E-2,-1.9777188E-2],"split_indices":[15,0,21,0,0],"split_type":[0,0,0,0,0],"sum_hessian":[4.348488E0,1.2565703E0,3.0919173E0,1.204111E0,1.8878063E0],"tree_param":{"num_deleted":"0","num_feature":"24","num_nodes":"5","size_leaf_vector":"1"}},{"base_weights":[1.329749E-1,-3.8668725E-1,6.426853E-2,-5.6114234E-2,-4.5558074E-4],"categories":[],"categories_nodes":[],"categories_segments":[],"categories_sizes":[],"default_left":[0,0,0,0,0],"id":45,"left_children":[1,3,-1,-1,-1],"loss_changes":[1.6274433E0,2.10913E-1,0E0,0E0,0E0],"parents":[2147483647,0,0,1,1],"right_children":[2,4,-1,-1,-1],"split_conditions":[2.9E1,5.75E2,6.426853E-2,-5.6114234E-2,-4.5558074E-4],"split_indices":[6,9,0,0,0],"split_type":[0,0,0,0,0],"sum_hessian":[4.2059035E0,2.2021337E0,2.0037699E0,1.1902797E0,1.0118539E0],"tree_param":{"num_deleted":"0","num_feature":"24","num_nodes":"5","size_leaf_vector":"1"}},{"base_weights":[1.1646083E-2,-3.0402684E-1,5.1847886E-2,-6.2137157E-2,3.289448E-3],"categories":[],"categories_nodes":[],"categories_segments":[],"categories_sizes":[],"default_left":[0,0,0,0,0],"id":46,"left_children":[1,3,-1,-1,-1],"loss_changes":[1.0599395E0,4.5940658E-1,0E0,0E0,0E0],"parents":[2147483647,0,0,1,1],"right_children":[2,4,-1,-1,-1],"split_conditions":[8.89E2,2.78E-1,5.1847886E-2,-6.2137157E-2,3.289448E-3],"split_indices":[9,23,0,0,0],"split_type":[0,0,0,0,0],"sum_hessian":[4.639658E0,3.1055548E0,1.5341029E0,1.1644765E0,1.9410784E0],"tree_param":{"num_deleted":"0","num_feature":"24","num_nodes":"5","size_leaf_vector":"1"}},{"base_weights":[6.1917678E-2,-3.4046162E-2,4.4020303E-2],"categories":[],"categories_nodes":[],"categories_segments":[],"categories_sizes":[],"default_left":[0,0,0],"id":47,"left_children":[1,-1,-1],"loss_changes":[9.0946203E-1,0E0,0E0],"parents":[2147483647,0,0],"right_children":[2,-1,-1],"split_conditions":[6.92E2,-3.4046162E-2,4.4020303E-2],"split_indices":[9,0,0],"split_type":[0,0,0],"sum_hessian":[3.9902701E0,1.982009E0,2.008261E0],"tree_param":{"num_deleted":"0","num_feature":"24","num_nodes":"3","size_leaf_vector":"1"}},{"base_weights":[-4.850341E-3,-5.976468E-2,2.7818015E-1,-7.291455E-2,6.5025456E-2,2.0015826E-2,-3.0018663E-2],"categories":[],"categories_nodes":[],"categories_segments":[],"categories_sizes":[],"default_left":[0,0,0,0,0,0,0],"id":48,"left_children":[1,-1,3,5,-1,-1,-1],"loss_changes":[1.085377E0,0E0,6.209237E-1,2.560743E-1,0E0,0E0,0E0],"parents":[2147483647,0,0,2,2,3,3],"right_children":[2,-1,4,6,-1,-1,-1],"split_conditions":[2E-1,-5.976468E-2,8.45E2,2.41E2,6.5025456E-2,2.0015826E-2,-3.0018663E-2],"split_indices":[15,0,9,9,0,0,0],"split_type":[0,0,0,0,0,0,0],"sum_hessian":[4.478164E0,1.0879326E0,3.3902316E0,2.1579714E0,1.2322602E0,1.0344074E0,1.123564E0],"tree_param":{"num_deleted":"0","num_feature":"24","num_nodes":"7","size_leaf_vector":"1"}},{"base_weights":[5.1940367E-2,-6.2971376E-2,4.1246113E-1,6.339576E-2,-1.0193316E-2],"categories":[],"categories_nodes":[],"categories_segments":[],"categories_sizes":[],"default_left":[0,0,0,0,0],"id":49,"left_children":[1,-1,3,-1,-1],"loss_changes":[1.478501E0,0E0,5.0304943E-1,0E0,0E0],"parents":[2147483647,0,0,2,2],"right_children":[2,-1,4,-1,-1],"split_conditions":[1.35E-1,-6.2971376E-2,7E-3,6.339576E-2,-1.0193316E-2],"split_indices":[15,0,19,0,0],"split_type":[0,0,0,0,0],"sum_hessian":[3.9593744E0,1.1113718E0,2.8480027E0,1.8283054E0,1.0196974E0],"tree_param":{"num_deleted":"0","num_feature":"24","num_nodes":"5","size_leaf_vector":"1"}},{"base_weights":[-1.733128E-1,-6.267769E-2,1.142366E-1,4.057485E-2,-1.2334588E-2],"categories":[],"categories_nodes":[],"categories_segments":[],"categories_sizes":[],"default_left":[0,0,0,0,0],"id":50,"left_children":[1,-1,3,-1,-1],"loss_changes":[7.3609215E-1,0E0,3.246124E-1,0E0,0E0],"parents":[2147483647,0,0,2,2],"right_children":[2,-1,4,-1,-1],"split_conditions":[2E-1,-6.267769E-2,8E-2,4.057485E-2,-1.2334588E-2],"split_indices":[15,0,13,0,0],"split_type":[0,0,0,0,0],"sum_hessian":[4.096053E0,1.13168E0,2.9643734E0,1.0132731E0,1.9511001E0],"tree_param":{"num_deleted":"0","num_feature":"24","num_nodes":"5","size_leaf_vector":"1"}},{"base_weights":[-2.6541615E-2,-4.0088497E-2,2.4836564E-2],"categories":[],"categories_nodes":[],"categories_segments":[],"categories_sizes":[],"default_left":[0,0,0],"id":51,"left_children":[1,-1,-1],"loss_changes":[6.407638E-1,0E0,0E0],"parents":[2147483647,0,0],"right_children":[2,-1,-1],"split_conditions":[3.1E-2,-4.0088497E-2,2.4836564E-2],"split_indices":[20,0,0],"split_type":[0,0,0],"sum_hessian":[4.258958E0,1.6093026E0,2.649655E0],"tree_param":{"num_deleted":"0","num_feature":"24","num_nodes":"3","size_leaf_vector":"1"}},{"base_weights":[-1.9067233E-2,-4.3278225E-2,3.166489E-1,4.822396E-2,-2.9761684E-3],"categories":[],"categories_nodes":[],"categories_segments":[],"categories_sizes":[],"default_left":[0,0,0,0,0],"id":52,"left_children":[1,-1,3,-1,-1],"loss_changes":[8.751959E-1,0E0,2.157729E-1,0E0,0E0],"parents":[2147483647,0,0,2,2],"right_children":[2,-1,4,-1,-1],"split_conditions":[3.1E-2,-4.3278225E-2,4.56E-1,4.822396E-2,-2.9761684E-3],"split_indices":[20,0,23,0,0],"split_type":[0,0,0,0,0],"sum_hessian":[4.314649E0,1.8032761E0,2.511373E0,1.4338582E0,1.0775149E0],"tree_param":{"num_deleted":"0","num_feature":"24","num_nodes":"5","size_leaf_vector":"1"}},{"base_weights":[-1.4283174E-1,-6.0831346E-2,2.7021423E-2],"categories":[],"categories_nodes":[],"categories_segments":[],"categories_sizes":[],"default_left":[0,0,0],"id":53,"left_children":[1,-1,-1],"loss_changes":[9.9212235E-1,0E0,0E0],"parents":[2147483647,0,0],"right_children":[2,-1,-1],"split_conditions":[3.1E-2,-6.0831346E-2,2.7021423E-2],"split_indices":[20,0,0],"split_type":[0,0,0],"sum_hessian":[3.3052347E0,1.3317126E0,1.9735221E0],"tree_param":{"num_deleted":"0","num_feature":"24","num_nodes":"3","size_leaf_vector":"1"}},{"base_weights":[2.5068764E-2,-2.6189893E-1,4.5860738E-2,9.915876E-3,-5.8736306E-2],"categories":[],"categories_nodes":[],"categories_segments":[],"categories_sizes":[],"default_left":[0,0,0,0,0],"id":54,"left_children":[1,3,-1,-1,-1],"loss_changes":[7.510248E-1,4.9161434E-1,0E0,0E0,0E0],"parents":[2147483647,0,0,1,1],"right_children":[2,4,-1,-1,-1],"split_conditions":[8.89E2,4.54E2,4.5860738E-2,9.915876E-3,-5.8736306E-2],"split_indices":[9,9,0,0,0],"split_type":[0,0,0,0,0],"sum_hessian":[4.0711994E0,2.687918E0,1.3832816E0,1.6039201E0,1.0839978E0],"tree_param":{"num_deleted":"0","num_feature":"24","num_nodes":"5","size_leaf_vector":"1"}},{"base_weights":[-9.9669725E-2,-3.608514E-1,3.067388E-2,1.14904195E-2,-6.377702E-2],"categories":[],"categories_nodes":[],"categories_segments":[],"categories_sizes":[],"default_left":[0,0,0,0,0],"id":55,"left_children":[1,3,-1,-1,-1],"loss_changes":[6.409393E-1,5.3446674E-1,0E0,0E0,0E0],"parents":[2147483647,0,0,1,1],"right_children":[2,4,-1,-1,-1],"split_conditions":[8.89E2,7.3E1,3.067388E-2,1.14904195E-2,-6.377702E-2],"split_indices":[9,9,0,0,0],"split_type":[0,0,0,0,0],"sum_hessian":[3.9954762E0,2.500565E0,1.4949113E0,1.1352425E0,1.3653226E0],"tree_param":{"num_deleted":"0","num_feature":"24","num_nodes":"5","size_leaf_vector":"1"}},{"base_weights":[-4.7024104E-1,-7.808373E-2,1.0005819E-2],"categories":[],"categories_nodes":[],"categories_segments":[],"categories_sizes":[],"default_left":[0,0,0],"id":56,"left_children":[1,-1,-1],"loss_changes":[7.133461E-1,0E0,0E0],"parents":[2147483647,0,0],"right_children":[2,-1,-1],"split_conditions":[7.35E2,-7.808373E-2,1.0005819E-2],"split_indices":[9,0,0],"split_type":[0,0,0],"sum_hessian":[2.5861053E0,1.435262E0,1.1508434E0],"tree_param":{"num_deleted":"0","num_feature":"24","num_nodes":"3","size_leaf_vector":"1"}},{"base_weights":[9.4356194E-2,-3.7908267E-2,4.5804098E-1,8.0899475E-3,6.0076535E-2],"categories":[],"categories_nodes":[],"categories_segments":[],"categories_sizes":[],"default_left":[0,0,0,0,0],"id":57,"left_children":[1,-1,3,-1,-1],"loss_changes":[1.0166602E0,0E0,1.2482226E-1,0E0,0E0],"parents":[2147483647,0,0,2,2],"right_children":[2,-1,4,-1,-1],"split_conditions":[6.5E-2,-3.7908267E-2,5.02E-1,8.0899475E-3,6.0076535E-2],"split_indices":[20,0,15,0,0],"split_type":[0,0,0,0,0],"sum_hessian":[3.8961115E0,1.6742553E0,2.2218564E0,1.0401468E0,1.1817095E0],"tree_param":{"num_deleted":"0","num_feature":"24","num_nodes":"5","size_leaf_vector":"1"}},{"base_weights":[7.8294784E-2,-3.5991516E-2,4.4482157E-2],"categories":[],"categories_nodes":[],"categories_segments":[],"categories_sizes":[],"default_left":[0,0,0],"id":58,"left_children":[1,-1,-1],"loss_changes":[8.728664E-1,0E0,0E0],"parents":[2147483647,0,0],"right_children":[2,-1,-1],"split_conditions":[3.1E-2,-3.5991516E-2,4.4482157E-2],"split_indices":[20,0,0],"split_type":[0,0,0],"sum_hessian":[3.4377255E0,1.5739684E0,1.8637573E0],"tree_param":{"num_deleted":"0","num_feature":"24","num_nodes":"3","size_leaf_vector":"1"}},{"base_weights":[-1.5993498E-1,-4.2616072E-1,2.8005967E-2,-6.525122E-2,4.605462E-3],"categories":[],"categories_nodes":[],"categories_segments":[],"categories_sizes":[],"default_left":[0,0,0,0,0],"id":59,"left_children":[1,3,-1,-1,-1],"loss_changes":[6.6792274E-1,3.843034E-1,0E0,0E0,0E0],"parents":[2147483647,0,0,1,1],"right_children":[2,4,-1,-1,-1],"split_conditions":[8.89E2,5.16E-1,2.8005967E-2,-6.525122E-2,4.605462E-3],"split_indices":[9,15,0,0,0],"split_type":[0,0,0,0,0],"sum_hessian":[3.6831324E0,2.314281E0,1.3688514E0,1.3063065E0,1.0079745E0],"tree_param":{"num_deleted":"0","num_feature":"24","num_nodes":"5","size_leaf_vector":"1"}},{"base_weights":[-5.4380376E-2,1.8840083E-1,-4.771317E-2,-1.8187152E-2,3.8695622E-2],"categories":[],"categories_nodes":[],"categories_segments":[],"categories_sizes":[],"default_left":[0,0,0,0,0],"id":60,"left_children":[1,3,-1,-1,-1],"loss_changes":[6.052284E-1,3.5756567E-1,0E0,0E0,0E0],"parents":[2147483647,0,0,1,1],"right_children":[2,4,-1,-1,-1],"split_conditions":[2.1E-2,2.05E-1,-4.771317E-2,-1.8187152E-2,3.8695622E-2],"split_indices":[19,23,0,0,0],"split_type":[0,0,0,0,0],"sum_hessian":[4.021006E0,2.9062984E0,1.1147077E0,1.0438048E0,1.8624938E0],"tree_param":{"num_deleted":"0","num_feature":"24","num_nodes":"5","size_leaf_vector":"1"}},{"base_weights":[-5.1649787E-2,1.6795547E-1,-4.418665E-2,-1.6918603E-2,3.6136996E-2],"categories":[],"categories_nodes":[],"categories_segments":[],"categories_sizes":[],"default_left":[0,0,0,0,0],"id":61,"left_children":[1,3,-1,-1,-1],"loss_changes":[4.9844503E-1,3.1495294E-1,0E0,0E0,0E0],"parents":[2147483647,0,0,1,1],"right_children":[2,4,-1,-1,-1],"split_conditions":[2.1E-2,2.05E-1,-4.418665E-2,-1.6918603E-2,3.6136996E-2],"split_indices":[19,23,0,0,0],"split_type":[0,0,0,0,0],"sum_hessian":[3.9505548E0,2.892375E0,1.0581799E0,1.1000832E0,1.7922919E0],"tree_param":{"num_deleted":"0","num_feature":"24","num_nodes":"5","size_leaf_vector":"1"}},{"base_weights":[1.2555158E-2,2.7232453E-2,-4.414448E-2],"categories":[],"categories_nodes":[],"categories_segments":[],"categories_sizes":[],"default_left":[0,0,0],"id":62,"left_children":[1,-1,-1],"loss_changes":[6.623267E-1,0E0,0E0],"parents":[2147483647,0,0],"right_children":[2,-1,-1],"split_conditions":[2.1E-2,2.7232453E-2,-4.414448E-2],"split_indices":[19,0,0],"split_type":[0,0,0],"sum_hessian":[3.5966766E0,2.5422308E0,1.0544456E0],"tree_param":{"num_deleted":"0","num_feature":"24","num_nodes":"3","size_leaf_vector":"1"}},{"base_weights":[-4.3723527E-2,-4.494384E-2,4.0122375E-2],"categories":[],"categories_nodes":[],"categories_segments":[],"categories_sizes":[],"default_left":[0,0,0],"id":63,"left_children":[1,-1,-1],"loss_changes":[9.2344934E-1,0E0,0E0],"parents":[2147483647,0,0],"right_children":[2,-1,-1],"split_conditions":[6.92E2,-4.494384E-2,4.0122375E-2],"split_indices":[9,0,0],"split_type":[0,0,0],"sum_hessian":[3.116535E0,1.624855E0,1.4916799E0],"tree_param":{"num_deleted":"0","num_feature":"24","num_nodes":"3","size_leaf_vector":"1"}},{"base_weights":[-2.3581801E-1,-5.5212688E-2,2.6332706E-2],"categories":[],"categories_nodes":[],"categories_segments":[],"categories_sizes":[],"default_left":[0,0,0],"id":64,"left_children":[1,-1,-1],"loss_changes":[8.1993514E-1,0E0,0E0],"parents":[2147483647,0,0],"right_children":[2,-1,-1],"split_conditions":[8.89E2,-5.5212688E-2,2.6332706E-2],"split_indices":[9,0,0],"split_type":[0,0,0],"sum_hessian":[3.27241E0,1.9380927E0,1.3343171E0],"tree_param":{"num_deleted":"0","num_feature":"24","num_nodes":"3","size_leaf_vector":"1"}},{"base_weights":[-1.5691817E-1,-5.331253E-2,1.7433567E-2],"categories":[],"categories_nodes":[],"categories_segments":[],"categories_sizes":[],"default_left":[0,0,0],"id":65,"left_children":[1,-1,-1],"loss_changes":[5.93114E-1,0E0,0E0],"parents":[2147483647,0,0],"right_children":[2,-1,-1],"split_conditions":[2.05E-1,-5.331253E-2,1.7433567E-2],"split_indices":[23,0,0],"split_type":[0,0,0],"sum_hessian":[3.0135694E0,1.1256945E0,1.8878748E0],"tree_param":{"num_deleted":"0","num_feature":"24","num_nodes":"3","size_leaf_vector":"1"}},{"base_weights":[-7.6572366E-2,-2.8768811E-2,2.512461E-2],"categories":[],"categories_nodes":[],"categories_segments":[],"categories_sizes":[],"default_left":[0,0,0],"id":66,"left_children":[1,-1,-1],"loss_changes":[3.835085E-1,0E0,0E0],"parents":[2147483647,0,0],"right_children":[2,-1,-1],"split_conditions":[8.45E2,-2.8768811E-2,2.512461E-2],"split_indices":[9,0,0],"split_type":[0,0,0],"sum_hessian":[3.497018E0,2.2015998E0,1.2954181E0],"tree_param":{"num_deleted":"0","num_feature":"24","num_nodes":"3","size_leaf_vector":"1"}},{"base_weights":[-7.301824E-2,9.174213E-3,-2.5453879E-2],"categories":[],"categories_nodes":[],"categories_segments":[],"categories_sizes":[],"default_left":[0,0,0],"id":67,"left_children":[1,-1,-1],"loss_changes":[1.3911073E-1,0E0,0E0],"parents":[2147483647,0,0],"right_children":[2,-1,-1],"split_conditions":[4.4E1,9.174213E-3,-2.5453879E-2],"split_indices":[6,0,0],"split_type":[0,0,0],"sum_hessian":[2.8705754E0,1.7640209E0,1.1065544E0],"tree_param":{"num_deleted":"0","num_feature":"24","num_nodes":"3","size_leaf_vector":"1"}},{"base_weights":[-5.0882287E-2,2.4491603E-2,-2.589276E-1,-4.2935584E-2,4.3309266E-3],"categories":[],"categories_nodes":[],"categories_segments":[],"categories_sizes":[],"default_left":[0,0,0,0,0],"id":68,"left_children":[1,-1,3,-1,-1],"loss_changes":[3.334048E-1,0E0,1.7630644E-1,0E0,0E0],"parents":[2147483647,0,0,2,2],"right_children":[2,-1,4,-1,-1],"split_conditions":[4.54E2,2.4491603E-2,9E2,-4.2935584E-2,4.3309266E-3],"split_indices":[9,0,9,0,0],"split_type":[0,0,0,0,0],"sum_hessian":[3.3872547E0,1.3254744E0,2.0617802E0,1.0494261E0,1.0123541E0],"tree_param":{"num_deleted":"0","num_feature":"24","num_nodes":"5","size_leaf_vector":"1"}},{"base_weights":[8.7356515E-2,-2.5794461E-2,3.2350637E-2],"categories":[],"categories_nodes":[],"categories_segments":[],"categories_sizes":[],"default_left":[0,0,0],"id":69,"left_children":[1,-1,-1],"loss_changes":[4.2687306E-1,0E0,0E0],"parents":[2147483647,0,0],"right_children":[2,-1,-1],"split_conditions":[3.1E-2,-2.5794461E-2,3.2350637E-2],"split_indices":[20,0,0],"split_type":[0,0,0],"sum_hessian":[3.2116084E0,1.2668755E0,1.9447328E0],"tree_param":{"num_deleted":"0","num_feature":"24","num_nodes":"3","size_leaf_vector":"1"}},{"base_weights":[1.014429E-1,-2.612786E-2,3.3736806E-2],"categories":[],"categories_nodes":[],"categories_segments":[],"categories_sizes":[],"default_left":[0,0,0],"id":70,"left_children":[1,-1,-1],"loss_changes":[4.3173897E-1,0E0,0E0],"parents":[2147483647,0,0],"right_children":[2,-1,-1],"split_conditions":[2.6E-1,-2.612786E-2,3.3736806E-2],"split_indices":[15,0,0],"split_type":[0,0,0],"sum_hessian":[3.015091E0,1.1458886E0,1.8692023E0],"tree_param":{"num_deleted":"0","num_feature":"24","num_nodes":"3","size_leaf_vector":"1"}},{"base_weights":[-2.3677637E-1,-5.2066077E-2,2.4013503E-2],"categories":[],"categories_nodes":[],"categories_segments":[],"categories_sizes":[],"default_left":[0,0,0],"id":71,"left_children":[1,-1,-1],"loss_changes":[6.877126E-1,0E0,0E0],"parents":[2147483647,0,0],"right_children":[2,-1,-1],"split_conditions":[8.89E2,-5.2066077E-2,2.4013503E-2],"split_indices":[9,0,0],"split_type":[0,0,0],"sum_hessian":[3.1560917E0,1.9209183E0,1.2351732E0],"tree_param":{"num_deleted":"0","num_feature":"24","num_nodes":"3","size_leaf_vector":"1"}},{"base_weights":[1.2627314E-1,-2.1808146E-2,3.5175726E-2],"categories":[],"categories_nodes":[],"categories_segments":[],"categories_sizes":[],"default_left":[0,0,0],"id":72,"left_children":[1,-1,-1],"loss_changes":[3.986695E-1,0E0,0E0],"parents":[2147483647,0,0],"right_children":[2,-1,-1],"split_conditions":[2.78E-1,-2.1808146E-2,3.5175726E-2],"split_indices":[23,0,0],"split_type":[0,0,0],"sum_hessian":[3.1464565E0,1.2580377E0,1.8884187E0],"tree_param":{"num_deleted":"0","num_feature":"24","num_nodes":"3","size_leaf_vector":"1"}},{"base_weights":[5.9809558E-2,-2.6736153E-2,2.8270075E-2],"categories":[],"categories_nodes":[],"categories_segments":[],"categories_sizes":[],"default_left":[0,0,0],"id":73,"left_children":[1,-1,-1],"loss_changes":[3.9163315E-1,0E0,0E0],"parents":[2147483647,0,0],"right_children":[2,-1,-1],"split_conditions":[3.1E-2,-2.6736153E-2,2.8270075E-2],"split_indices":[20,0,0],"split_type":[0,0,0],"sum_hessian":[3.3339884E0,1.2701222E0,2.0638661E0],"tree_param":{"num_deleted":"0","num_feature":"24","num_nodes":"3","size_leaf_vector":"1"}},{"base_weights":[2.7407795E-1,-1.2463878E-2,5.175529E-2],"categories":[],"categories_nodes":[],"categories_segments":[],"categories_sizes":[],"default_left":[0,0,0],"id":74,"left_children":[1,-1,-1],"loss_changes":[4.0723714E-1,0E0,0E0],"parents":[2147483647,0,0],"right_children":[2,-1,-1],"split_conditions":[2.78E-1,-1.2463878E-2,5.175529E-2],"split_indices":[23,0,0],"split_type":[0,0,0],"sum_hessian":[2.530477E0,1.1444309E0,1.3860462E0],"tree_param":{"num_deleted":"0","num_feature":"24","num_nodes":"3","size_leaf_vector":"1"}},{"base_weights":[-6.738077E-2,2.4179593E-2,-3.8749766E-2],"categories":[],"categories_nodes":[],"categories_segments":[],"categories_sizes":[],"default_left":[0,0,0],"id":75,"left_children":[1,-1,-1],"loss_changes":[5.045048E-1,0E0,0E0],"parents":[2147483647,0,0],"right_children":[2,-1,-1],"split_conditions":[2.16E-1,2.4179593E-2,-3.8749766E-2],"split_indices":[22,0,0],"split_type":[0,0,0],"sum_hessian":[3.1507359E0,1.7272139E0,1.423522E0],"tree_param":{"num_deleted":"0","num_feature":"24","num_nodes":"3","size_leaf_vector":"1"}},{"base_weights":[4.0559437E-2,-2.8012425E-2,2.7817143E-2],"categories":[],"categories_nodes":[],"categories_segments":[],"categories_sizes":[],"default_left":[0,0,0],"id":76,"left_children":[1,-1,-1],"loss_changes":[3.957953E-1,0E0,0E0],"parents":[2147483647,0,0],"right_children":[2,-1,-1],"split_conditions":[3E-1,-2.8012425E-2,2.7817143E-2],"split_indices":[15,0,0],"split_type":[0,0,0],"sum_hessian":[3.1716518E0,1.2737161E0,1.8979356E0],"tree_param":{"num_deleted":"0","num_feature":"24","num_nodes":"3","size_leaf_vector":"1"}},{"base_weights":[5.248829E-3,-1.9466092E-1,3.3158187E-2,1.4514491E-2,-4.0866088E-2],"categories":[],"categories_nodes":[],"categories_segments":[],"categories_sizes":[],"default_left":[0,0,0,0,0],"id":77,"left_children":[1,3,-1,-1,-1],"loss_changes":[3.444868E-1,2.9863867E-1,0E0,0E0,0E0],"parents":[2147483647,0,0,1,1],"right_children":[2,4,-1,-1,-1],"split_conditions":[8.45E2,7.3E1,3.3158187E-2,1.4514491E-2,-4.0866088E-2],"split_indices":[9,9,0,0,0],"split_type":[0,0,0,0,0],"sum_hessian":[3.2911246E0,2.2911E0,1.0000248E0,1.0096506E0,1.2814493E0],"tree_param":{"num_deleted":"0","num_feature":"24","num_nodes":"5","size_leaf_vector":"1"}},{"base_weights":[-2.6791036E-1,-4.0971648E-2,4.7320607E-3],"categories":[],"categories_nodes":[],"categories_segments":[],"categories_sizes":[],"default_left":[0,0,0],"id":78,"left_children":[1,-1,-1],"loss_changes":[1.9857013E-1,0E0,0E0],"parents":[2147483647,0,0],"right_children":[2,-1,-1],"split_conditions":[3.34E-1,-4.0971648E-2,4.7320607E-3],"split_indices":[21,0,0],"split_type":[0,0,0],"sum_hessian":[3.0083969E0,1.8682387E0,1.1401582E0],"tree_param":{"num_deleted":"0","num_feature":"24","num_nodes":"3","size_leaf_vector":"1"}},{"base_weights":[3.570143E-2,3.1115402E-2,-1.4961755E-1,-3.8527448E-2,1.3306047E-2],"categories":[],"categories_nodes":[],"categories_segments":[],"categories_sizes":[],"default_left":[0,0,0,0,0],"id":79,"left_children":[1,-1,3,-1,-1],"loss_changes":[2.6256287E-1,0E0,2.6476398E-1,0E0,0E0],"parents":[2147483647,0,0,2,2],"right_children":[2,-1,4,-1,-1],"split_conditions":[3E0,3.1115402E-2,2E-2,-3.8527448E-2,1.3306047E-2],"split_indices":[10,0,18,0,0],"split_type":[0,0,0,0,0],"sum_hessian":[3.2316E0,1.0266299E0,2.2049701E0,1.0045632E0,1.200407E0],"tree_param":{"num_deleted":"0","num_feature":"24","num_nodes":"5","size_leaf_vector":"1"}},{"base_weights":[-4.5531232E-2,-1.8972234E-1,2.0198701E-2,1.42902015E-2,-3.930334E-2],"categories":[],"categories_nodes":[],"categories_segments":[],"categories_sizes":[],"default_left":[0,0,0,0,0],"id":80,"left_children":[1,3,-1,-1,-1],"loss_changes":[1.9811423E-1,2.8236127E-1,0E0,0E0,0E0],"parents":[2147483647,0,0,1,1],"right_children":[2,4,-1,-1,-1],"split_conditions":[8.45E2,8.3E1,2.0198701E-2,1.42902015E-2,-3.930334E-2],"split_indices":[9,9,0,0,0],"split_type":[0,0,0,0,0],"sum_hessian":[3.4772515E0,2.3447976E0,1.132454E0,1.0022333E0,1.3425642E0],"tree_param":{"num_deleted":"0","num_feature":"24","num_nodes":"5","size_leaf_vector":"1"}},{"base_weights":[-9.763548E-2,1.3922529E-2,-2.3891932E-1,-3.8705554E-2,1.9912291E-3],"categories":[],"categories_nodes":[],"categories_segments":[],"categories_sizes":[],"default_left":[0,0,0,0,0],"id":81,"left_children":[1,-1,3,-1,-1],"loss_changes":[1.7872815E-1,0E0,1.262204E-1,0E0,0E0],"parents":[2147483647,0,0,2,2],"right_children":[2,-1,4,-1,-1],"split_conditions":[3E0,1.3922529E-2,1.2E-2,-3.8705554E-2,1.9912291E-3],"split_indices":[10,0,18,0,0],"split_type":[0,0,0,0,0],"sum_hessian":[3.3468184E0,1.2558949E0,2.0909235E0,1.0147563E0,1.0761673E0],"tree_param":{"num_deleted":"0","num_feature":"24","num_nodes":"5","size_leaf_vector":"1"}},{"base_weights":[9.572817E-2,-3.2917555E-2,5.867606E-2],"categories":[],"categories_nodes":[],"categories_segments":[],"categories_sizes":[],"default_left":[0,0,0],"id":82,"left_children":[1,-1,-1],"loss_changes":[9.411442E-1,0E0,0E0],"parents":[2147483647,0,0],"right_children":[2,-1,-1],"split_conditions":[3.3E1,-3.2917555E-2,5.867606E-2],"split_indices":[6,0,0],"split_type":[0,0,0],"sum_hessian":[2.5850823E0,1.562572E0,1.0225104E0],"tree_param":{"num_deleted":"0","num_feature":"24","num_nodes":"3","size_leaf_vector":"1"}},{"base_weights":[1.4050518E-1,4.1032575E-2,-2.1230403E-2],"categories":[],"categories_nodes":[],"categories_segments":[],"categories_sizes":[],"default_left":[0,0,0],"id":83,"left_children":[1,-1,-1],"loss_changes":[3.831314E-1,0E0,0E0],"parents":[2147483647,0,0],"right_children":[2,-1,-1],"split_conditions":[7E-3,4.1032575E-2,-2.1230403E-2],"split_indices":[19,0,0],"split_type":[0,0,0],"sum_hessian":[2.1095858E0,1.1030067E0,1.0065792E0],"tree_param":{"num_deleted":"0","num_feature":"24","num_nodes":"3","size_leaf_vector":"1"}},{"base_weights":[-1.8403705E-2,-4.226971E-2,4.481977E-2],"categories":[],"categories_nodes":[],"categories_segments":[],"categories_sizes":[],"default_left":[0,0,0],"id":84,"left_children":[1,-1,-1],"loss_changes":[8.7123233E-1,0E0,0E0],"parents":[2147483647,0,0],"right_children":[2,-1,-1],"split_conditions":[6.92E2,-4.226971E-2,4.481977E-2],"split_indices":[9,0,0],"split_type":[0,0,0],"sum_hessian":[2.6141145E0,1.4509833E0,1.1631312E0],"tree_param":{"num_deleted":"0","num_feature":"24","num_nodes":"3","size_leaf_vector":"1"}},{"base_weights":[1.023784E-2,-2.5632376E-2,2.1050267E-2],"categories":[],"categories_nodes":[],"categories_segments":[],"categories_sizes":[],"default_left":[0,0,0],"id":85,"left_children":[1,-1,-1],"loss_changes":[2.7651587E-1,0E0,0E0],"parents":[2147483647,0,0],"right_children":[2,-1,-1],"split_conditions":[6.5E-2,-2.5632376E-2,2.1050267E-2],"split_indices":[20,0,0],"split_type":[0,0,0],"sum_hessian":[3.1691062E0,1.2394364E0,1.92967E0],"tree_param":{"num_deleted":"0","num_feature":"24","num_nodes":"3","size_leaf_vector":"1"}},{"base_weights":[-1.2506185E-1,-3.9029785E-2,1.7188353E-2],"categories":[],"categories_nodes":[],"categories_segments":[],"categories_sizes":[],"default_left":[0,0,0],"id":86,"left_children":[1,-1,-1],"loss_changes":[3.7332642E-1,0E0,0E0],"parents":[2147483647,0,0],"right_children":[2,-1,-1],"split_conditions":[6.92E2,-3.9029785E-2,1.7188353E-2],"split_indices":[9,0,0],"split_type":[0,0,0],"sum_hessian":[2.8882473E0,1.3595244E0,1.5287229E0],"tree_param":{"num_deleted":"0","num_feature":"24","num_nodes":"3","size_leaf_vector":"1"}},{"base_weights":[-2.2354444E-2,3.152836E-2,-3.784633E-2],"categories":[],"categories_nodes":[],"categories_segments":[],"categories_sizes":[],"default_left":[0,0,0],"id":87,"left_children":[1,-1,-1],"loss_changes":[5.885634E-1,0E0,0E0],"parents":[2147483647,0,0],"right_children":[2,-1,-1],"split_conditions":[2.24E-1,3.152836E-2,-3.784633E-2],"split_indices":[22,0,0],"split_type":[0,0,0],"sum_hessian":[2.9026625E0,1.54882E0,1.3538425E0],"tree_param":{"num_deleted":"0","num_feature":"24","num_nodes":"3","size_leaf_vector":"1"}},{"base_weights":[-6.913377E-2,1.7672978E-2,-2.2449108E-2],"categories":[],"categories_nodes":[],"categories_segments":[],"categories_sizes":[],"default_left":[0,0,0],"id":88,"left_children":[1,-1,-1],"loss_changes":[1.912986E-1,0E0,0E0],"parents":[2147483647,0,0],"right_children":[2,-1,-1],"split_conditions":[8.9E-2,1.7672978E-2,-2.2449108E-2],"split_indices":[22,0,0],"split_type":[0,0,0],"sum_hessian":[2.9695666E0,1.0965815E0,1.872985E0],"tree_param":{"num_deleted":"0","num_feature":"24","num_nodes":"3","size_leaf_vector":"1"}},{"base_weights":[-1.289875E-1,1.5159259E-2,-2.648395E-1,-5.341003E-2,1.4404476E-2],"categories":[],"categories_nodes":[],"categories_segments":[],"categories_sizes":[],"default_left":[0,0,0,0,0],"id":89,"left_children":[1,-1,3,-1,-1],"loss_changes":[1.9982737E-1,0E0,4.2776376E-1,0E0,0E0],"parents":[2147483647,0,0,2,2],"right_children":[2,-1,4,-1,-1],"split_conditions":[7.3E1,1.5159259E-2,8.89E2,-5.341003E-2,1.4404476E-2],"split_indices":[9,0,9,0,0],"split_type":[0,0,0,0,0],"sum_hessian":[3.189158E0,1.0025954E0,2.1865625E0,1.1337322E0,1.0528302E0],"tree_param":{"num_deleted":"0","num_feature":"24","num_nodes":"5","size_leaf_vector":"1"}},{"base_weights":[-4.2643687E-3,-2.858076E-2,2.0325692E-2],"categories":[],"categories_nodes":[],"categories_segments":[],"categories_sizes":[],"default_left":[0,0,0],"id":90,"left_children":[1,-1,-1],"loss_changes":[3.0917525E-1,0E0,0E0],"parents":[2147483647,0,0],"right_children":[2,-1,-1],"split_conditions":[3.1E-2,-2.858076E-2,2.0325692E-2],"split_indices":[20,0,0],"split_type":[0,0,0],"sum_hessian":[3.2974348E0,1.2391036E0,2.0583313E0],"tree_param":{"num_deleted":"0","num_feature":"24","num_nodes":"3","size_leaf_vector":"1"}},{"base_weights":[-5.4897282E-2,1.2151138E-2,-2.2477118E-2],"categories":[],"categories_nodes":[],"categories_segments":[],"categories_sizes":[],"default_left":[0,0,0],"id":91,"left_children":[1,-1,-1],"loss_changes":[1.2742707E-1,0E0,0E0],"parents":[2147483647,0,0],"right_children":[2,-1,-1],"split_conditions":[2.2E-1,1.2151138E-2,-2.2477118E-2],"split_indices":[22,0,0],"split_type":[0,0,0],"sum_hessian":[2.3408105E0,1.2879803E0,1.0528302E0],"tree_param":{"num_deleted":"0","num_feature":"24","num_nodes":"3","size_leaf_vector":"1"}},{"base_weights":[1.2135788E-1,-2.5865007E-2,4.386176E-2],"categories":[],"categories_nodes":[],"categories_segments":[],"categories_sizes":[],"default_left":[0,0,0],"id":92,"left_children":[1,-1,-1],"loss_changes":[5.62079E-1,0E0,0E0],"parents":[2147483647,0,0],"right_children":[2,-1,-1],"split_conditions":[2.9E1,-2.5865007E-2,4.386176E-2],"split_indices":[6,0,0],"split_type":[0,0,0],"sum_hessian":[2.721185E0,1.3222067E0,1.3989781E0],"tree_param":{"num_deleted":"0","num_feature":"24","num_nodes":"3","size_leaf_vector":"1"}},{"base_weights":[-8.256756E-2,-2.367431E-2,1.7390003E-2],"categories":[],"categories_nodes":[],"categories_segments":[],"categories_sizes":[],"default_left":[0,0,0],"id":93,"left_children":[1,-1,-1],"loss_changes":[2.0283675E-1,0E0,0E0],"parents":[2147483647,0,0],"right_children":[2,-1,-1],"split_conditions":[8.45E2,-2.367431E-2,1.7390003E-2],"split_indices":[9,0,0],"split_type":[0,0,0],"sum_hessian":[3.088592E0,1.9770166E0,1.1115755E0],"tree_param":{"num_deleted":"0","num_feature":"24","num_nodes":"3","size_leaf_vector":"1"}},{"base_weights":[1.9765633E-1,-2.0787897E-2,4.54618E-2],"categories":[],"categories_nodes":[],"categories_segments":[],"categories_sizes":[],"default_left":[0,0,0],"id":94,"left_children":[1,-1,-1],"loss_changes":[4.910505E-1,0E0,0E0],"parents":[2147483647,0,0],"right_children":[2,-1,-1],"split_conditions":[2.13E-1,-2.0787897E-2,4.54618E-2],"split_indices":[23,0,0],"split_type":[0,0,0],"sum_hessian":[2.805357E0,1.1621969E0,1.64316E0],"tree_param":{"num_deleted":"0","num_feature":"24","num_nodes":"3","size_leaf_vector":"1"}},{"base_weights":[1.2370346E-1],"categories":[],"categories_nodes":[],"categories_segments":[],"categories_sizes":[],"default_left":[0],"id":95,"left_children":[-1],"loss_changes":[0E0],"parents":[2147483647],"right_children":[-1],"split_conditions":[1.2370346E-2],"split_indices":[0],"split_type":[0],"sum_hessian":[1.9244308E0],"tree_param":{"num_deleted":"0","num_feature":"24","num_nodes":"1","size_leaf_vector":"1"}},{"base_weights":[-2.0996544E-1,1.2252886E-2,-4.0624157E-2],"categories":[],"categories_nodes":[],"categories_segments":[],"categories_sizes":[],"default_left":[0,0,0],"id":96,"left_children":[1,-1,-1],"loss_changes":[3.0073035E-1,0E0,0E0],"parents":[2147483647,0,0],"right_children":[2,-1,-1],"split_conditions":[5.08E-1,1.2252886E-2,-4.0624157E-2],"split_indices":[14,0,0],"split_type":[0,0,0],"sum_hessian":[2.8454087E0,1.1956664E0,1.6497422E0],"tree_param":{"num_deleted":"0","num_feature":"24","num_nodes":"3","size_leaf_vector":"1"}},{"base_weights":[5.6633957E-2,-2.3059145E-2,3.2767374E-2],"categories":[],"categories_nodes":[],"categories_segments":[],"categories_sizes":[],"default_left":[0,0,0],"id":97,"left_children":[1,-1,-1],"loss_changes":[3.4585068E-1,0E0,0E0],"parents":[2147483647,0,0],"right_children":[2,-1,-1],"split_conditions":[3.1E1,-2.3059145E-2,3.2767374E-2],"split_indices":[6,0,0],"split_type":[0,0,0],"sum_hessian":[2.47198E0,1.2726089E0,1.1993711E0],"tree_param":{"num_deleted":"0","num_feature":"24","num_nodes":"3","size_leaf_vector":"1"}},{"base_weights":[4.942261E-2,-2.6972353E-2,2.930187E-2],"categories":[],"categories_nodes":[],"categories_segments":[],"categories_sizes":[],"default_left":[0,0,0],"id":98,"left_children":[1,-1,-1],"loss_changes":[3.886929E-1,0E0,0E0],"parents":[2147483647,0,0],"right_children":[2,-1,-1],"split_conditions":[3.1E-2,-2.6972353E-2,2.930187E-2],"split_indices":[20,0,0],"split_type":[0,0,0],"sum_hessian":[2.9831219E0,1.244885E0,1.7382369E0],"tree_param":{"num_deleted":"0","num_feature":"24","num_nodes":"3","size_leaf_vector":"1"}},{"base_weights":[-1.1297639E-1,2.8061334E-2,-5.495259E-2],"categories":[],"categories_nodes":[],"categories_segments":[],"categories_sizes":[],"default_left":[0,0,0],"id":99,"left_children":[1,-1,-1],"loss_changes":[7.725658E-1,0E0,0E0],"parents":[2147483647,0,0],"right_children":[2,-1,-1],"split_conditions":[2.24E-1,2.8061334E-2,-5.495259E-2],"split_indices":[22,0,0],"split_type":[0,0,0],"sum_hessian":[2.5988622E0,1.5545201E0,1.0443419E0],"tree_param":{"num_deleted":"0","num_feature":"24","num_nodes":"3","size_leaf_vector":"1"}},{"base_weights":[6.0994003E-2,-2.979942E-2,3.307202E-2],"categories":[],"categories_nodes":[],"categories_segments":[],"categories_sizes":[],"default_left":[0,0,0],"id":100,"left_children":[1,-1,-1],"loss_changes":[4.409077E-1,0E0,0E0],"parents":[2147483647,0,0],"right_children":[2,-1,-1],"split_conditions":[4E-1,-2.979942E-2,3.307202E-2],"split_indices":[23,0,0],"split_type":[0,0,0],"sum_hessian":[2.5356839E0,1.0428779E0,1.4928061E0],"tree_param":{"num_deleted":"0","num_feature":"24","num_nodes":"3","size_leaf_vector":"1"}},{"base_weights":[3.6510378E-2,-2.3627741E-2,2.2837108E-2],"categories":[],"categories_nodes":[],"categories_segments":[],"categories_sizes":[],"default_left":[0,0,0],"id":101,"left_children":[1,-1,-1],"loss_changes":[2.6305693E-1,0E0,0E0],"parents":[2147483647,0,0],"right_children":[2,-1,-1],"split_conditions":[3.1E-2,-2.3627741E-2,2.2837108E-2],"split_indices":[20,0,0],"split_type":[0,0,0],"sum_hessian":[2.995204E0,1.1411749E0,1.854029E0],"tree_param":{"num_deleted":"0","num_feature":"24","num_nodes":"3","size_leaf_vector":"1"}},{"base_weights":[-1.8272315E-1,1.6770639E-2,-4.0674344E-2],"categories":[],"categories_nodes":[],"categories_segments":[],"categories_sizes":[],"default_left":[0,0,0],"id":102,"left_children":[1,-1,-1],"loss_changes":[3.7538505E-1,0E0,0E0],"parents":[2147483647,0,0],"right_children":[2,-1,-1],"split_conditions":[4.54E2,1.6770639E-2,-4.0674344E-2],"split_indices":[9,0,0],"split_type":[0,0,0],"sum_hessian":[2.9128482E0,1.233965E0,1.6788833E0],"tree_param":{"num_deleted":"0","num_feature":"24","num_nodes":"3","size_leaf_vector":"1"}},{"base_weights":[8.2429096E-2,-2.214858E-2,4.051475E-2],"categories":[],"categories_nodes":[],"categories_segments":[],"categories_sizes":[],"default_left":[0,0,0],"id":103,"left_children":[1,-1,-1],"loss_changes":[4.3668064E-1,0E0,0E0],"parents":[2147483647,0,0],"right_children":[2,-1,-1],"split_conditions":[3.34E-1,-2.214858E-2,4.051475E-2],"split_indices":[21,0,0],"split_type":[0,0,0],"sum_hessian":[2.537419E0,1.4683298E0,1.0690892E0],"tree_param":{"num_deleted":"0","num_feature":"24","num_nodes":"3","size_leaf_vector":"1"}},{"base_weights":[-1.9907154E-2,-2.3777176E-2,1.9649995E-2],"categories":[],"categories_nodes":[],"categories_segments":[],"categories_sizes":[],"default_left":[0,0,0],"id":104,"left_children":[1,-1,-1],"loss_changes":[2.2361667E-1,0E0,0E0],"parents":[2147483647,0,0],"right_children":[2,-1,-1],"split_conditions":[6.92E2,-2.3777176E-2,1.9649995E-2],"split_indices":[9,0,0],"split_type":[0,0,0],"sum_hessian":[2.7519436E0,1.3221573E0,1.4297863E0],"tree_param":{"num_deleted":"0","num_feature":"24","num_nodes":"3","size_leaf_vector":"1"}},{"base_weights":[-3.440081E-2,1.961992E-2,-1.9467114E-2],"categories":[],"categories_nodes":[],"categories_segments":[],"categories_sizes":[],"default_left":[0,0,0],"id":105,"left_children":[1,-1,-1],"loss_changes":[1.8948594E-1,0E0,0E0],"parents":[2147483647,0,0],"right_children":[2,-1,-1],"split_conditions":[4.54E2,1.961992E-2,-1.9467114E-2],"split_indices":[9,0,0],"split_type":[0,0,0],"sum_hessian":[3.0935721E0,1.1765512E0,1.917021E0],"tree_param":{"num_deleted":"0","num_feature":"24","num_nodes":"3","size_leaf_vector":"1"}},{"base_weights":[8.911071E-2,3.1284366E-2,-1.9156558E-2],"categories":[],"categories_nodes":[],"categories_segments":[],"categories_sizes":[],"default_left":[0,0,0],"id":106,"left_children":[1,-1,-1],"loss_changes":[2.5751424E-1,0E0,0E0],"parents":[2147483647,0,0],"right_children":[2,-1,-1],"split_conditions":[2E-1,3.1284366E-2,-1.9156558E-2],"split_indices":[20,0,0],"split_type":[0,0,0],"sum_hessian":[2.1464186E0,1.1305927E0,1.0158257E0],"tree_param":{"num_deleted":"0","num_feature":"24","num_nodes":"3","size_leaf_vector":"1"}},{"base_weights":[-3.4508135E-2,1.7063709E-2,-1.7463548E-2],"categories":[],"categories_nodes":[],"categories_segments":[],"categories_sizes":[],"default_left":[0,0,0],"id":107,"left_children":[1,-1,-1],"loss_changes":[1.4970611E-1,0E0,0E0],"parents":[2147483647,0,0],"right_children":[2,-1,-1],"split_conditions":[4.54E2,1.7063709E-2,-1.7463548E-2],"split_indices":[9,0,0],"split_type":[0,0,0],"sum_hessian":[3.171186E0,1.1986476E0,1.9725384E0],"tree_param":{"num_deleted":"0","num_feature":"24","num_nodes":"3","size_leaf_vector":"1"}},{"base_weights":[-4.5872696E-2,1.3083214E-2,-2.2108434E-2],"categories":[],"categories_nodes":[],"categories_segments":[],"categories_sizes":[],"default_left":[0,0,0],"id":108,"left_children":[1,-1,-1],"loss_changes":[1.5782231E-1,0E0,0E0],"parents":[2147483647,0,0],"right_children":[2,-1,-1],"split_conditions":[2.2E-1,1.3083214E-2,-2.2108434E-2],"split_indices":[22,0,0],"split_type":[0,0,0],"sum_hessian":[3.1632514E0,1.701023E0,1.4622285E0],"tree_param":{"num_deleted":"0","num_feature":"24","num_nodes":"3","size_leaf_vector":"1"}},{"base_weights":[1.1753217E-1,2.6376352E-2,-9.710658E-3],"categories":[],"categories_nodes":[],"categories_segments":[],"categories_sizes":[],"default_left":[0,0,0],"id":109,"left_children":[1,-1,-1],"loss_changes":[1.4424707E-1,0E0,0E0],"parents":[2147483647,0,0],"right_children":[2,-1,-1],"split_conditions":[2.24E-1,2.6376352E-2,-9.710658E-3],"split_indices":[22,0,0],"split_type":[0,0,0],"sum_hessian":[2.7797246E0,1.5171994E0,1.2625253E0],"tree_param":{"num_deleted":"0","num_feature":"24","num_nodes":"3","size_leaf_vector":"1"}},{"base_weights":[4.4074454E-3,-3.3724055E-2,3.1885765E-2],"categories":[],"categories_nodes":[],"categories_segments":[],"categories_sizes":[],"default_left":[0,0,0],"id":110,"left_children":[1,-1,-1],"loss_changes":[4.936787E-1,0E0,0E0],"parents":[2147483647,0,0],"right_children":[2,-1,-1],"split_conditions":[1.53E-1,-3.3724055E-2,3.1885765E-2],"split_indices":[20,0,0],"split_type":[0,0,0],"sum_hessian":[2.5943625E0,1.2086718E0,1.3856906E0],"tree_param":{"num_deleted":"0","num_feature":"24","num_nodes":"3","size_leaf_vector":"1"}},{"base_weights":[1.8448702E-1,-2.1472983E-2,4.7504414E-2],"categories":[],"categories_nodes":[],"categories_segments":[],"categories_sizes":[],"default_left":[0,0,0],"id":111,"left_children":[1,-1,-1],"loss_changes":[5.2461106E-1,0E0,0E0],"parents":[2147483647,0,0],"right_children":[2,-1,-1],"split_conditions":[2.9E1,-2.1472983E-2,4.7504414E-2],"split_indices":[6,0,0],"split_type":[0,0,0],"sum_hessian":[2.6432936E0,1.2233791E0,1.4199146E0],"tree_param":{"num_deleted":"0","num_feature":"24","num_nodes":"3","size_leaf_vector":"1"}},{"base_weights":[-6.805846E-2,-2.1233478E-1,1.873493E-2,5.793081E-3,-3.702987E-2],"categories":[],"categories_nodes":[],"categories_segments":[],"categories_sizes":[],"default_left":[0,0,0,0,0],"id":112,"left_children":[1,3,-1,-1,-1],"loss_changes":[1.9455175E-1,1.5604798E-1,0E0,0E0,0E0],"parents":[2147483647,0,0,1,1],"right_children":[2,4,-1,-1,-1],"split_conditions":[8.89E2,2.41E2,1.873493E-2,5.793081E-3,-3.702987E-2],"split_indices":[9,9,0,0,0],"split_type":[0,0,0,0,0],"sum_hessian":[3.2001073E0,2.1527133E0,1.047394E0,1.0276828E0,1.1250305E0],"tree_param":{"num_deleted":"0","num_feature":"24","num_nodes":"5","size_leaf_vector":"1"}},{"base_weights":[1.3804033E-1,-2.110569E-2,3.935175E-2],"categories":[],"categories_nodes":[],"categories_segments":[],"categories_sizes":[],"default_left":[0,0,0],"id":113,"left_children":[1,-1,-1],"loss_changes":[4.1776353E-1,0E0,0E0],"parents":[2147483647,0,0],"right_children":[2,-1,-1],"split_conditions":[2.9E1,-2.110569E-2,3.935175E-2],"split_indices":[6,0,0],"split_type":[0,0,0],"sum_hessian":[2.7529156E0,1.2367829E0,1.5161327E0],"tree_param":{"num_deleted":"0","num_feature":"24","num_nodes":"3","size_leaf_vector":"1"}},{"base_weights":[-2.2075333E-1,-4.5622468E-2,1.5234475E-3],"categories":[],"categories_nodes":[],"categories_segments":[],"categories_sizes":[],"default_left":[0,0,0],"id":114,"left_children":[1,-1,-1],"loss_changes":[2.266221E-1,0E0,0E0],"parents":[2147483647,0,0],"right_children":[2,-1,-1],"split_conditions":[2.9E1,-4.5622468E-2,1.5234475E-3],"split_indices":[6,0,0],"split_type":[0,0,0],"sum_hessian":[2.9531803E0,1.0110688E0,1.9421115E0],"tree_param":{"num_deleted":"0","num_feature":"24","num_nodes":"3","size_leaf_vector":"1"}},{"base_weights":[-9.749779E-3,1.7143529E-2,-2.0416517E-2],"categories":[],"categories_nodes":[],"categories_segments":[],"categories_sizes":[],"default_left":[0,0,0],"id":115,"left_children":[1,-1,-1],"loss_changes":[1.7444076E-1,0E0,0E0],"parents":[2147483647,0,0],"right_children":[2,-1,-1],"split_conditions":[2.24E-1,1.7143529E-2,-2.0416517E-2],"split_indices":[22,0,0],"split_type":[0,0,0],"sum_hessian":[2.9585238E0,1.5925503E0,1.3659734E0],"tree_param":{"num_deleted":"0","num_feature":"24","num_nodes":"3","size_leaf_vector":"1"}},{"base_weights":[1.4252736E-1,-1.7028717E-2,3.2981973E-2],"categories":[],"categories_nodes":[],"categories_segments":[],"categories_sizes":[],"default_left":[0,0,0],"id":116,"left_children":[1,-1,-1],"loss_changes":[2.7691907E-1,0E0,0E0],"parents":[2147483647,0,0],"right_children":[2,-1,-1],"split_conditions":[2.4E-2,-1.7028717E-2,3.2981973E-2],"split_indices":[20,0,0],"split_type":[0,0,0],"sum_hessian":[2.767937E0,1.0706084E0,1.6973284E0],"tree_param":{"num_deleted":"0","num_feature":"24","num_nodes":"3","size_leaf_vector":"1"}},{"base_weights":[-9.857584E-2,1.1046692E-2,-2.1773724E-2],"categories":[],"categories_nodes":[],"categories_segments":[],"categories_sizes":[],"default_left":[0,0,0],"id":117,"left_children":[1,-1,-1],"loss_changes":[1.2739605E-1,0E0,0E0],"parents":[2147483647,0,0],"right_children":[2,-1,-1],"split_conditions":[3E0,1.1046692E-2,-2.1773724E-2],"split_indices":[10,0,0],"split_type":[0,0,0],"sum_hessian":[3.1486955E0,1.169691E0,1.9790045E0],"tree_param":{"num_deleted":"0","num_feature":"24","num_nodes":"3","size_leaf_vector":"1"}},{"base_weights":[-1.373971E-1,-2.7627144E-2,9.847315E-3],"categories":[],"categories_nodes":[],"categories_segments":[],"categories_sizes":[],"default_left":[0,0,0],"id":118,"left_children":[1,-1,-1],"loss_changes":[1.4726105E-1,0E0,0E0],"parents":[2147483647,0,0],"right_children":[2,-1,-1],"split_conditions":[5.02E-1,-2.7627144E-2,9.847315E-3],"split_indices":[15,0,0],"split_type":[0,0,0],"sum_hessian":[2.6651177E0,1.5696579E0,1.0954598E0],"tree_param":{"num_deleted":"0","num_feature":"24","num_nodes":"3","size_leaf_vector":"1"}},{"base_weights":[2.176181E-2,2.1553878E-2,-1.9135796E-2],"categories":[],"categories_nodes":[],"categories_segments":[],"categories_sizes":[],"default_left":[0,0,0],"id":119,"left_children":[1,-1,-1],"loss_changes":[2.0238696E-1,0E0,0E0],"parents":[2147483647,0,0],"right_children":[2,-1,-1],"split_conditions":[2.24E-1,2.1553878E-2,-1.9135796E-2],"split_indices":[22,0,0],"split_type":[0,0,0],"sum_hessian":[2.9019585E0,1.5140101E0,1.3879485E0],"tree_param":{"num_deleted":"0","num_feature":"24","num_nodes":"3","size_leaf_vector":"1"}},{"base_weights":[-6.643692E-2,-1.9978417E-1,1.6983172E-2,5.1678326E-3,-3.4793124E-2],"categories":[],"categories_nodes":[],"categories_segments":[],"categories_sizes":[],"default_left":[0,0,0,0,0],"id":120,"left_children":[1,3,-1,-1,-1],"loss_changes":[1.6218822E-1,1.320411E-1,0E0,0E0,0E0],"parents":[2147483647,0,0,1,1],"right_children":[2,4,-1,-1,-1],"split_conditions":[8.45E2,2.41E2,1.6983172E-2,5.1678326E-3,-3.4793124E-2],"split_indices":[9,9,0,0,0],"split_type":[0,0,0,0,0],"sum_hessian":[3.0709536E0,2.061747E0,1.0092065E0,1.005758E0,1.055989E0],"tree_param":{"num_deleted":"0","num_feature":"24","num_nodes":"5","size_leaf_vector":"1"}},{"base_weights":[-2.6628655E-1,-5.2368958E-2,1.9531405E-2],"categories":[],"categories_nodes":[],"categories_segments":[],"categories_sizes":[],"default_left":[0,0,0],"id":121,"left_children":[1,-1,-1],"loss_changes":[5.4145145E-1,0E0,0E0],"parents":[2147483647,0,0],"right_children":[2,-1,-1],"split_conditions":[8.89E2,-5.2368958E-2,1.9531405E-2],"split_indices":[9,0,0],"split_type":[0,0,0],"sum_hessian":[2.6961548E0,1.6445783E0,1.0515766E0],"tree_param":{"num_deleted":"0","num_feature":"24","num_nodes":"3","size_leaf_vector":"1"}},{"base_weights":[-1.8149243E-1,-4.8589442E-2,1.4664809E-2],"categories":[],"categories_nodes":[],"categories_segments":[],"categories_sizes":[],"default_left":[0,0,0],"id":122,"left_children":[1,-1,-1],"loss_changes":[4.2052698E-1,0E0,0E0],"parents":[2147483647,0,0],"right_children":[2,-1,-1],"split_conditions":[6.92E2,-4.8589442E-2,1.4664809E-2],"split_indices":[9,0,0],"split_type":[0,0,0],"sum_hessian":[2.4966795E0,1.045792E0,1.4508876E0],"tree_param":{"num_deleted":"0","num_feature":"24","num_nodes":"3","size_leaf_vector":"1"}},{"base_weights":[-1.0226399E-2,1.580637E-2,-2.3157047E-2],"categories":[],"categories_nodes":[],"categories_segments":[],"categories_sizes":[],"default_left":[0,0,0],"id":123,"left_children":[1,-1,-1],"loss_changes":[1.7475933E-1,0E0,0E0],"parents":[2147483647,0,0],"right_children":[2,-1,-1],"split_conditions":[4.1E1,1.580637E-2,-2.3157047E-2],"split_indices":[6,0,0],"split_type":[0,0,0],"sum_hessian":[2.7088966E0,1.7012845E0,1.0076122E0],"tree_param":{"num_deleted":"0","num_feature":"24","num_nodes":"3","size_leaf_vector":"1"}},{"base_weights":[-7.856972E-2,-3.605218E-2,2.3573237E-2],"categories":[],"categories_nodes":[],"categories_segments":[],"categories_sizes":[],"default_left":[0,0,0],"id":124,"left_children":[1,-1,-1],"loss_changes":[3.9932153E-1,0E0,0E0],"parents":[2147483647,0,0],"right_children":[2,-1,-1],"split_conditions":[6.92E2,-3.605218E-2,2.3573237E-2],"split_indices":[9,0,0],"split_type":[0,0,0],"sum_hessian":[2.5470717E0,1.2651151E0,1.2819566E0],"tree_param":{"num_deleted":"0","num_feature":"24","num_nodes":"3","size_leaf_vector":"1"}},{"base_weights":[-2.3274726E-1,-4.5833614E-2,8.53127E-3],"categories":[],"categories_nodes":[],"categories_segments":[],"categories_sizes":[],"default_left":[0,0,0],"id":125,"left_children":[1,-1,-1],"loss_changes":[2.707579E-1,0E0,0E0],"parents":[2147483647,0,0],"right_children":[2,-1,-1],"split_conditions":[3.1E-1,-4.5833614E-2,8.53127E-3],"split_indices":[21,0,0],"split_type":[0,0,0],"sum_hessian":[2.2286198E0,1.0458195E0,1.1828004E0],"tree_param":{"num_deleted":"0","num_feature":"24","num_nodes":"3","size_leaf_vector":"1"}},{"base_weights":[6.3234955E-2,3.0082205E-2,-1.629819E-2],"categories":[],"categories_nodes":[],"categories_segments":[],"categories_sizes":[],"default_left":[0,0,0],"id":126,"left_children":[1,-1,-1],"loss_changes":[2.3565517E-1,0E0,0E0],"parents":[2147483647,0,0],"right_children":[2,-1,-1],"split_conditions":[3.1E1,3.0082205E-2,-1.629819E-2],"split_indices":[6,0,0],"split_type":[0,0,0],"sum_hessian":[2.472369E0,1.045024E0,1.4273448E0],"tree_param":{"num_deleted":"0","num_feature":"24","num_nodes":"3","size_leaf_vector":"1"}},{"base_weights":[4.565801E-2,2.4818858E-2,-1.7324854E-2],"categories":[],"categories_nodes":[],"categories_segments":[],"categories_sizes":[],"default_left":[0,0,0],"id":127,"left_children":[1,-1,-1],"loss_changes":[2.1127638E-1,0E0,0E0],"parents":[2147483647,0,0],"right_children":[2,-1,-1],"split_conditions":[2.24E-1,2.4818858E-2,-1.7324854E-2],"split_indices":[22,0,0],"split_type":[0,0,0],"sum_hessian":[2.7955806E0,1.3826233E0,1.4129572E0],"tree_param":{"num_deleted":"0","num_feature":"24","num_nodes":"3","size_leaf_vector":"1"}},{"base_weights":[9.585934E-3,1.9419927E-2,-1.3230279E-2],"categories":[],"categories_nodes":[],"categories_segments":[],"categories_sizes":[],"default_left":[0,0,0],"id":128,"left_children":[1,-1,-1],"loss_changes":[1.3062495E-1,0E0,0E0],"parents":[2147483647,0,0],"right_children":[2,-1,-1],"split_conditions":[4.54E2,1.9419927E-2,-1.3230279E-2],"split_indices":[9,0,0],"split_type":[0,0,0],"sum_hessian":[3.0058653E0,1.1460505E0,1.8598148E0],"tree_param":{"num_deleted":"0","num_feature":"24","num_nodes":"3","size_leaf_vector":"1"}},{"base_weights":[8.324656E-2,2.5009427E-2,-9.718946E-3],"categories":[],"categories_nodes":[],"categories_segments":[],"categories_sizes":[],"default_left":[0,0,0],"id":129,"left_children":[1,-1,-1],"loss_changes":[1.2681742E-1,0E0,0E0],"parents":[2147483647,0,0],"right_children":[2,-1,-1],"split_conditions":[2E-1,2.5009427E-2,-9.718946E-3],"split_indices":[22,0,0],"split_type":[0,0,0],"sum_hessian":[2.4050744E0,1.0490091E0,1.3560652E0],"tree_param":{"num_deleted":"0","num_feature":"24","num_nodes":"3","size_leaf_vector":"1"}},{"base_weights":[3.093046E-3,-1.9212907E-2,1.3816647E-2],"categories":[],"categories_nodes":[],"categories_segments":[],"categories_sizes":[],"default_left":[0,0,0],"id":130,"left_children":[1,-1,-1],"loss_changes":[1.3357063E-1,0E0,0E0],"parents":[2147483647,0,0],"right_children":[2,-1,-1],"split_conditions":[3.4E-2,-1.9212907E-2,1.3816647E-2],"split_indices":[20,0,0],"split_type":[0,0,0],"sum_hessian":[3.058688E0,1.0781007E0,1.9805874E0],"tree_param":{"num_deleted":"0","num_feature":"24","num_nodes":"3","size_leaf_vector":"1"}},{"base_weights":[-6.5417876E-3,-1.9565696E-2,1.2891622E-2],"categories":[],"categories_nodes":[],"categories_segments":[],"categories_sizes":[],"default_left":[0,0,0],"id":131,"left_children":[1,-1,-1],"loss_changes":[1.2976715E-1,0E0,0E0],"parents":[2147483647,0,0],"right_children":[2,-1,-1],"split_conditions":[3.1E-2,-1.9565696E-2,1.2891622E-2],"split_indices":[20,0,0],"split_type":[0,0,0],"sum_hessian":[3.0810058E0,1.100362E0,1.980644E0],"tree_param":{"num_deleted":"0","num_feature":"24","num_nodes":"3","size_leaf_vector":"1"}},{"base_weights":[2.2202296E-2,2.3692088E-2,-1.3596669E-2],"categories":[],"categories_nodes":[],"categories_segments":[],"categories_sizes":[],"default_left":[0,0,0],"id":132,"left_children":[1,-1,-1],"loss_changes":[1.6643809E-1,0E0,0E0],"parents":[2147483647,0,0],"right_children":[2,-1,-1],"split_conditions":[4.54E2,2.3692088E-2,-1.3596669E-2],"split_indices":[9,0,0],"split_type":[0,0,0],"sum_hessian":[2.952225E0,1.0410604E0,1.9111644E0],"tree_param":{"num_deleted":"0","num_feature":"24","num_nodes":"3","size_leaf_vector":"1"}},{"base_weights":[-1.0490246E-2,1.9965347E-2,-1.6143449E-2],"categories":[],"categories_nodes":[],"categories_segments":[],"categories_sizes":[],"default_left":[0,0,0],"id":133,"left_children":[1,-1,-1],"loss_changes":[1.5662326E-1,0E0,0E0],"parents":[2147483647,0,0],"right_children":[2,-1,-1],"split_conditions":[4.54E2,1.9965347E-2,-1.6143449E-2],"split_indices":[9,0,0],"split_type":[0,0,0],"sum_hessian":[2.9215753E0,1.0863994E0,1.8351758E0],"tree_param":{"num_deleted":"0","num_feature":"24","num_nodes":"3","size_leaf_vector":"1"}},{"base_weights":[-1.5464288E-1,-4.081607E-2,1.6404351E-2],"categories":[],"categories_nodes":[],"categories_segments":[],"categories_sizes":[],"default_left":[0,0,0],"id":134,"left_children":[1,-1,-1],"loss_changes":[3.2386905E-1,0E0,0E0],"parents":[2147483647,0,0],"right_children":[2,-1,-1],"split_conditions":[5.64E-1,-4.081607E-2,1.6404351E-2],"split_indices":[15,0,0],"split_type":[0,0,0],"sum_hessian":[2.1799037E0,1.0577191E0,1.1221846E0],"tree_param":{"num_deleted":"0","num_feature":"24","num_nodes":"3","size_leaf_vector":"1"}},{"base_weights":[1.0614478E-1,-1.8651687E-2,3.181268E-2],"categories":[],"categories_nodes":[],"categories_segments":[],"categories_sizes":[],"default_left":[0,0,0],"id":135,"left_children":[1,-1,-1],"loss_changes":[2.7817532E-1,0E0,0E0],"parents":[2147483647,0,0],"right_children":[2,-1,-1],"split_conditions":[3.1E-2,-1.8651687E-2,3.181268E-2],"split_indices":[20,0,0],"split_type":[0,0,0],"sum_hessian":[2.527448E0,1.1121483E0,1.4152997E0],"tree_param":{"num_deleted":"0","num_feature":"24","num_nodes":"3","size_leaf_vector":"1"}},{"base_weights":[-1.3344297E-2,-1.7801296E-2,2.140587E-2],"categories":[],"categories_nodes":[],"categories_segments":[],"categories_sizes":[],"default_left":[0,0,0],"id":136,"left_children":[1,-1,-1],"loss_changes":[1.7831533E-1,0E0,0E0],"parents":[2147483647,0,0],"right_children":[2,-1,-1],"split_conditions":[8.89E2,-1.7801296E-2,2.140587E-2],"split_indices":[9,0,0],"split_type":[0,0,0],"sum_hessian":[2.7443132E0,1.7176838E0,1.0266296E0],"tree_param":{"num_deleted":"0","num_feature":"24","num_nodes":"3","size_leaf_vector":"1"}},{"base_weights":[1.150371E-1,-1.990799E-2,4.0318083E-2],"categories":[],"categories_nodes":[],"categories_segments":[],"categories_sizes":[],"default_left":[0,0,0],"id":137,"left_children":[1,-1,-1],"loss_changes":[3.8169575E-1,0E0,0E0],"parents":[2147483647,0,0],"right_children":[2,-1,-1],"split_conditions":[6.92E2,-1.990799E-2,4.0318083E-2],"split_indices":[9,0,0],"split_type":[0,0,0],"sum_hessian":[2.3303251E0,1.2627959E0,1.0675292E0],"tree_param":{"num_deleted":"0","num_feature":"24","num_nodes":"3","size_leaf_vector":"1"}},{"base_weights":[-1.4989474E-1,-3.439447E-2,7.941034E-3],"categories":[],"categories_nodes":[],"categories_segments":[],"categories_sizes":[],"default_left":[0,0,0],"id":138,"left_children":[1,-1,-1],"loss_changes":[1.9264482E-1,0E0,0E0],"parents":[2147483647,0,0],"right_children":[2,-1,-1],"split_conditions":[6.92E2,-3.439447E-2,7.941034E-3],"split_indices":[9,0,0],"split_type":[0,0,0],"sum_hessian":[2.715608E0,1.2000875E0,1.5155202E0],"tree_param":{"num_deleted":"0","num_feature":"24","num_nodes":"3","size_leaf_vector":"1"}},{"base_weights":[-7.56251E-2,1.64582E-2,-2.9568398E-2],"categories":[],"categories_nodes":[],"categories_segments":[],"categories_sizes":[],"default_left":[0,0,0],"id":139,"left_children":[1,-1,-1],"loss_changes":[2.2688541E-1,0E0,0E0],"parents":[2147483647,0,0],"right_children":[2,-1,-1],"split_conditions":[2.11E-1,1.64582E-2,-2.9568398E-2],"split_indices":[22,0,0],"split_type":[0,0,0],"sum_hessian":[2.3715885E0,1.254418E0,1.1171703E0],"tree_param":{"num_deleted":"0","num_feature":"24","num_nodes":"3","size_leaf_vector":"1"}},{"base_weights":[2.201674E-1],"categories":[],"categories_nodes":[],"categories_segments":[],"categories_sizes":[],"default_left":[0],"id":140,"left_children":[-1],"loss_changes":[0E0],"parents":[2147483647],"right_children":[-1],"split_conditions":[2.201674E-2],"split_indices":[0],"split_type":[0],"sum_hessian":[1.6871687E0],"tree_param":{"num_deleted":"0","num_feature":"24","num_nodes":"1","size_leaf_vector":"1"}},{"base_weights":[1.933313E-1,-2.1232294E-2,4.4955354E-2],"categories":[],"categories_nodes":[],"categories_segments":[],"categories_sizes":[],"default_left":[0,0,0],"id":141,"left_children":[1,-1,-1],"loss_changes":[4.64352E-1,0E0,0E0],"parents":[2147483647,0,0],"right_children":[2,-1,-1],"split_conditions":[3E-1,-2.1232294E-2,4.4955354E-2],"split_indices":[15,0,0],"split_type":[0,0,0],"sum_hessian":[2.5492585E0,1.0531814E0,1.496077E0],"tree_param":{"num_deleted":"0","num_feature":"24","num_nodes":"3","size_leaf_vector":"1"}},{"base_weights":[3.9202314E-2,-1.7979236E-2,1.9540703E-2],"categories":[],"categories_nodes":[],"categories_segments":[],"categories_sizes":[],"default_left":[0,0,0],"id":142,"left_children":[1,-1,-1],"loss_changes":[1.6286129E-1,0E0,0E0],"parents":[2147483647,0,0],"right_children":[2,-1,-1],"split_conditions":[1.8E-2,-1.7979236E-2,1.9540703E-2],"split_indices":[20,0,0],"split_type":[0,0,0],"sum_hessian":[2.733881E0,1.0753146E0,1.6585664E0],"tree_param":{"num_deleted":"0","num_feature":"24","num_nodes":"3","size_leaf_vector":"1"}},{"base_weights":[1.2313628E-1,-1.5967427E-2,3.3898737E-2],"categories":[],"categories_nodes":[],"categories_segments":[],"categories_sizes":[],"default_left":[0,0,0],"id":143,"left_children":[1,-1,-1],"loss_changes":[2.4848986E-1,0E0,0E0],"parents":[2147483647,0,0],"right_children":[2,-1,-1],"split_conditions":[1.53E-1,-1.5967427E-2,3.3898737E-2],"split_indices":[20,0,0],"split_type":[0,0,0],"sum_hessian":[2.1839206E0,1.0579888E0,1.1259319E0],"tree_param":{"num_deleted":"0","num_feature":"24","num_nodes":"3","size_leaf_vector":"1"}},{"base_weights":[-2.3022537E-1],"categories":[],"categories_nodes":[],"categories_segments":[],"categories_sizes":[],"default_left":[0],"id":144,"left_children":[-1],"loss_changes":[0E0],"parents":[2147483647],"right_children":[-1],"split_conditions":[-2.3022538E-2],"split_indices":[0],"split_type":[0],"sum_hessian":[1.9614705E0],"tree_param":{"num_deleted":"0","num_feature":"24","num_nodes":"1","size_leaf_vector":"1"}},{"base_weights":[-3.067897E-2,-3.3944488E-2,2.7231112E-2],"categories":[],"categories_nodes":[],"categories_segments":[],"categories_sizes":[],"default_left":[0,0,0],"id":145,"left_children":[1,-1,-1],"loss_changes":[4.008264E-1,0E0,0E0],"parents":[2147483647,0,0],"right_children":[2,-1,-1],"split_conditions":[6.92E2,-3.3944488E-2,2.7231112E-2],"split_indices":[9,0,0],"split_type":[0,0,0],"sum_hessian":[2.2964387E0,1.0777881E0,1.2186505E0],"tree_param":{"num_deleted":"0","num_feature":"24","num_nodes":"3","size_leaf_vector":"1"}},{"base_weights":[-1.1954755E-1,1.3717811E-2,-3.3740185E-2],"categories":[],"categories_nodes":[],"categories_segments":[],"categories_sizes":[],"default_left":[0,0,0],"id":146,"left_children":[1,-1,-1],"loss_changes":[2.3926511E-1,0E0,0E0],"parents":[2147483647,0,0],"right_children":[2,-1,-1],"split_conditions":[2.2E-1,1.3717811E-2,-3.3740185E-2],"split_indices":[22,0,0],"split_type":[0,0,0],"sum_hessian":[2.4504766E0,1.2948778E0,1.155599E0],"tree_param":{"num_deleted":"0","num_feature":"24","num_nodes":"3","size_leaf_vector":"1"}},{"base_weights":[1.2564225E-1,-1.48844E-2,3.006095E-2],"categories":[],"categories_nodes":[],"categories_segments":[],"categories_sizes":[],"default_left":[0,0,0],"id":147,"left_children":[1,-1,-1],"loss_changes":[2.2279988E-1,0E0,0E0],"parents":[2147483647,0,0],"right_children":[2,-1,-1],"split_conditions":[2.9E1,-1.48844E-2,3.006095E-2],"split_indices":[6,0,0],"split_type":[0,0,0],"sum_hessian":[2.7074833E0,1.1121154E0,1.5953679E0],"tree_param":{"num_deleted":"0","num_feature":"24","num_nodes":"3","size_leaf_vector":"1"}},{"base_weights":[-2.7881002E-1],"categories":[],"categories_nodes":[],"categories_segments":[],"categories_sizes":[],"default_left":[0],"id":148,"left_children":[-1],"loss_changes":[0E0],"parents":[2147483647],"right_children":[-1],"split_conditions":[-2.7881002E-2],"split_indices":[0],"split_type":[0],"sum_hessian":[2.1541908E0],"tree_param":{"num_deleted":"0","num_feature":"24","num_nodes":"1","size_leaf_vector":"1"}},{"base_weights":[-8.2135275E-2,1.3598836E-2,-3.0497372E-2],"categories":[],"categories_nodes":[],"categories_segments":[],"categories_sizes":[],"default_left":[0,0,0],"id":149,"left_children":[1,-1,-1],"loss_changes":[2.248823E-1,0E0,0E0],"parents":[2147483647,0,0],"right_children":[2,-1,-1],"split_conditions":[2.24E-1,1.3598836E-2,-3.0497372E-2],"split_indices":[22,0,0],"split_type":[0,0,0],"sum_hessian":[2.7733653E0,1.5984651E0,1.1749002E0],"tree_param":{"num_deleted":"0","num_feature":"24","num_nodes":"3","size_leaf_vector":"1"}}]},"name":"gbtree"},"learner_model_param":{"base_score":"[5E-1]","boost_from_average":"1","num_class":"0","num_feature":"24","num_target":"1"},"objective":{"name":"binary:logistic","reg_loss_param":{"scale_pos_weight":"1.11538458"}}},"version":[3,1,1]}